Sample,Dim1,Dim2,Dim3,Dim4,Dim5,Dim6,Dim7,Dim8,Dim9,Dim10,Dim11,Dim12,Dim13,Dim14,Dim15,Dim16,Dim17,Dim18,Dim19,Dim20,Dim21,Dim22,Dim23,Dim24,Dim25,Dim26,Dim27,Dim28,Dim29,Dim30,Dim31,Dim32,Dim33,Dim34,Dim35,Dim36,Dim37,Dim38,Dim39,Dim40,Dim41,Dim42,Dim43,Dim44,Dim45,Dim46,Dim47,Dim48,Dim49,Dim50,Dim51,Dim52,Dim53,Dim54,Dim55,Dim56,Dim57,Dim58,Dim59,Dim60,Dim61,Dim62,Dim63,Dim64,Standard_dev_1,Standard_dev_2,Standard_dev_3,Standard_dev_4,Standard_dev_5,Standard_dev_6,Standard_dev_7,Standard_dev_8,Standard_dev_9,Standard_dev_10,Standard_dev_11,Standard_dev_12,Standard_dev_13,Standard_dev_14,Standard_dev_15,Standard_dev_16,Standard_dev_17,Standard_dev_18,Standard_dev_19,Standard_dev_20,Standard_dev_21,Standard_dev_22,Standard_dev_23,Standard_dev_24,Standard_dev_25,Standard_dev_26,Standard_dev_27,Standard_dev_28,Standard_dev_29,Standard_dev_30,Standard_dev_31,Standard_dev_32,Standard_dev_33,Standard_dev_34,Standard_dev_35,Standard_dev_36,Standard_dev_37,Standard_dev_38,Standard_dev_39,Standard_dev_40,Standard_dev_41,Standard_dev_42,Standard_dev_43,Standard_dev_44,Standard_dev_45,Standard_dev_46,Standard_dev_47,Standard_dev_48,Standard_dev_49,Standard_dev_50,Standard_dev_51,Standard_dev_52,Standard_dev_53,Standard_dev_54,Standard_dev_55,Standard_dev_56,Standard_dev_57,Standard_dev_58,Standard_dev_59,Standard_dev_60,Standard_dev_61,Standard_dev_62,Standard_dev_63,Standard_dev_64
SPY211279,0.053434994,4.854839,-0.029322788,-10.459346,15.507674,-16.667316,1.9844865,-1.7955767,-3.6054695,0.775725,5.1308165,11.034745,11.104174,4.917393,-10.937577,-14.398651,-4.709675,2.613501,-3.3776288,-8.18819,-2.7607863,1.8056313,5.7124743,0.6941627,0.96559554,-9.472384,-3.8588412,9.99766,0.1922071,-2.1566029,-13.813483,-12.641678,-0.7711011,-31.353947,10.393171,4.0667286,0.8807594,3.6873937,-13.548837,2.0542243,2.702918,-3.2563932,-17.075882,-15.081948,-10.157178,14.474842,2.1549473,-25.824892,-16.795845,-13.593919,-1.5591961,16.752516,-35.828465,2.0369065,4.7062087,5.7730184,-11.845689,5.9171753,14.368777,-5.3859944,-28.433199,-13.532013,-9.596031,-9.387244,0.06686431,0.052589934,0.073476724,0.10516725,0.26347858,0.17213874,0.059750076,0.05722088,0.08637115,0.18590821,0.10543741,0.14476229,0.11211056,0.039971557,0.21630476,0.10444424,0.08659748,0.075634375,0.13909274,0.1024912,0.087781176,0.13186,0.0676692,0.027961336,0.08579046,0.20894228,0.077788346,0.089007035,0.07221227,0.13328266,0.21591415,0.10849776,0.0466009,0.36477405,0.09585612,0.08343132,0.037627652,0.05117112,0.21764462,0.11767739,0.18473284,0.054230615,0.19214642,0.14098306,0.04660955,0.14353582,0.07913026,0.21208778,0.18401739,0.1398386,0.11098093,0.11025775,0.25497213,0.11390346,0.04859119,0.06167374,0.1587122,0.06201197,0.15559064,0.093921684,0.3134738,0.118367895,0.12701431,0.0802012
SPY222973,-0.5668031,6.170358,-0.70714384,-11.19498,10.231634,-12.012512,1.6622916,-1.5468603,0.6764264,-5.347865,7.121277,17.176605,12.075332,6.5375776,-12.7490835,-10.338982,-7.6316853,2.2921925,1.7753205,-11.128725,-1.5540862,-0.6637013,7.5044065,2.0792475,6.986742,-8.382761,-2.5817711,6.136507,1.8090067,-3.8132367,-11.981448,-14.612038,1.4983171,-29.284761,16.45903,3.9723308,3.2706468,6.11132,-12.858431,7.3442564,-8.934107,-1.1496134,-22.38086,-12.757681,-10.146595,13.886872,4.3975873,-30.119005,-17.135422,-13.612106,3.1506152,17.003666,-36.30521,4.461222,3.1198642,2.3339844,-15.828874,8.667601,17.482082,-1.9587305,-32.865616,-14.391045,-7.661484,-10.791985,0.06399198,0.10787256,0.12217645,0.1460497,0.22781144,0.31038952,0.06330891,0.04756223,0.23732415,0.13947584,0.1119416,0.29379377,0.17732641,0.06393032,0.3142269,0.22800772,0.20767541,0.08796978,0.19654562,0.1479439,0.17045927,0.073342554,0.06353658,0.11664092,0.20522986,0.13998137,0.09717379,0.21199828,0.08045624,0.17245078,0.2002202,0.1445103,0.08967495,0.31895638,0.28431574,0.09390335,0.12596005,0.17066559,0.18913239,0.18267179,0.48730037,0.14749724,0.37040684,0.17143679,0.15419877,0.20332965,0.057169117,0.30327386,0.17047791,0.18395865,0.15058014,0.17856517,0.3572655,0.18106183,0.10046088,0.27283582,0.3144168,0.14451838,0.18012376,0.13083516,0.38567975,0.14391167,0.15207733,0.10808733
SPY211048,-0.7535571,6.6835184,-0.014504995,-10.254623,10.038648,-11.81926,1.177576,-0.93773806,-0.18019311,-6.822946,8.066348,15.1768465,11.827639,5.969128,-13.527698,-9.978362,-6.692399,2.6197443,1.2912277,-12.442963,-1.4815172,-1.1230571,7.982443,2.7126546,8.330253,-9.486792,-2.2447376,4.6160064,1.9154615,-5.0577154,-12.59894,-14.841815,0.8022807,-29.238247,16.0534,5.3631954,3.6483982,5.840974,-13.9857645,8.697763,-10.070576,-0.88763875,-22.751509,-12.289994,-9.094571,13.924568,4.581549,-29.604815,-17.695711,-14.371962,4.405221,16.052494,-36.13131,4.2101474,2.2453585,0.79358655,-17.872238,8.253544,16.50204,-1.4356445,-33.99165,-13.947431,-7.763652,-10.528922,0.090645,0.079075605,0.21135736,0.13617378,0.19591191,0.2861572,0.07820191,0.06946106,0.14991179,0.116870455,0.15139072,0.2128439,0.07065074,0.09089449,0.18628399,0.30338955,0.1612391,0.07893643,0.21787347,0.1667246,0.27148312,0.1522865,0.056616873,0.12559736,0.21788767,0.3009188,0.10484799,0.25993627,0.18546969,0.26895922,0.23063302,0.21539891,0.067022026,0.28737622,0.20941105,0.11638759,0.14298254,0.1937801,0.2763089,0.13074344,0.33176082,0.124210976,0.22062297,0.13835281,0.16389287,0.19415751,0.09739583,0.33753896,0.27670524,0.14495564,0.10392876,0.13891485,0.5665846,0.22148204,0.06463866,0.3177414,0.17688726,0.111574575,0.14539003,0.17877933,0.26453984,0.17949373,0.14196157,0.1579071
SPY211071,-0.37896445,6.265494,0.41980216,-9.950368,9.9115,-11.731617,1.4431145,-1.17492,-0.06397034,-5.8431425,7.217864,15.589174,11.330959,6.2498507,-12.562481,-10.455335,-6.859109,2.4955494,0.6876692,-11.61043,-0.6784889,-0.5006409,7.6496863,2.024652,7.102618,-8.13383,-2.3965795,5.7608027,1.8667241,-3.6347315,-11.790392,-14.7873955,0.9278459,-28.812456,16.043816,4.709299,3.7060878,6.220403,-12.871273,8.053315,-8.842842,-0.7005967,-21.888407,-12.027147,-9.417753,13.113329,4.205404,-29.482573,-17.627192,-13.693348,3.7226589,16.01444,-36.42226,3.342082,2.3290339,1.9163481,-16.32182,8.153618,16.534407,-1.9854907,-32.65607,-14.042129,-7.1395802,-10.556179,0.06430593,0.092305414,0.14348444,0.12872767,0.1984622,0.3047771,0.06750912,0.053874623,0.21323906,0.139565,0.11779692,0.24786943,0.11489336,0.068838,0.2700524,0.2631603,0.18777867,0.082127474,0.1846248,0.16316597,0.18692967,0.08667953,0.059582874,0.11783865,0.18220861,0.18792483,0.09985431,0.2166982,0.12536894,0.1866542,0.20267758,0.1640033,0.08106452,0.26687655,0.22011872,0.124442026,0.1323196,0.16060217,0.23863272,0.1719433,0.42554194,0.12104602,0.30426842,0.15001796,0.15496257,0.17993966,0.06252903,0.25238827,0.21202573,0.15925802,0.1502009,0.13926168,0.40754718,0.17387606,0.07652988,0.28129244,0.277287,0.11868778,0.12743768,0.14334825,0.31161618,0.12728664,0.1283068,0.11126761
SPY231664,-0.91466135,8.075951,1.7117722,-7.6028233,15.440034,-17.87055,1.1029388,-0.8859106,-7.2885666,-5.0752816,8.399556,6.6988273,11.179841,2.5974374,-13.276391,-15.381654,-2.2195208,4.992927,-3.629156,-12.999713,-1.5263127,-0.11458374,8.037569,2.923825,4.206914,-10.604026,-4.06588,6.974691,3.802358,-7.6349688,-16.951813,-15.560903,-1.8079128,-29.93351,10.655196,5.484611,3.3569686,2.824059,-17.662914,6.8449063,-1.330799,-4.1455736,-19.969992,-13.732144,-8.9739275,14.982726,3.7260425,-28.080915,-19.180918,-16.779516,3.4982789,14.731867,-40.295567,0.70989084,3.893609,4.970422,-15.2547,6.974934,14.482139,-4.0583515,-36.297253,-15.0336,-10.7240925,-9.427261,0.03969862,0.19716094,0.32078695,0.24461423,0.20104328,0.13760254,0.17031488,0.10975573,0.26580516,0.22157018,0.22512066,0.30384818,0.10794428,0.15221104,0.26933792,0.29498827,0.16488585,0.07484748,0.27084407,0.22524528,0.36000407,0.10830787,0.07213081,0.1832501,0.2485621,0.18886824,0.051825784,0.26194063,0.15478043,0.31132787,0.22178054,0.14682099,0.105099685,0.19491945,0.15480253,0.31908527,0.12598641,0.08185891,0.20055439,0.18247497,0.32564074,0.191076,0.27339986,0.12582964,0.07472169,0.12934959,0.13093305,0.1929998,0.19425184,0.18986364,0.20356205,0.13281912,0.30000803,0.34693125,0.13441862,0.16693304,0.19747947,0.15767914,0.31991887,0.16334744,0.46361926,0.15723015,0.13546786,0.11700469
SPY231712,-2.2848258,8.89474,-2.3776503,-12.992855,13.250336,-12.63854,0.16048506,-2.8563004,-1.9923956,-5.1855645,7.5798764,13.005713,12.145328,5.0117183,-17.263489,-9.084008,-7.133516,3.0390172,0.16974832,-11.41109,-6.7091455,0.8896823,8.167638,4.6581416,3.6155217,-5.1781907,-2.5031042,6.886222,-0.28345218,-5.2408614,-11.15586,-14.812675,-0.58224165,-33.373764,13.932717,1.235633,5.5652413,5.5373507,-10.147125,8.301758,-9.975785,-2.7875783,-25.850195,-11.060534,-7.994495,12.644973,2.6652644,-32.189274,-15.795646,-15.87554,4.989554,16.704014,-37.836784,5.4643536,3.7715106,2.9033825,-16.073603,11.221036,18.99393,-0.92138064,-38.10725,-15.654295,-8.865862,-8.827424,0.06800355,0.11201797,0.13607644,0.16977379,0.30827242,0.2793208,0.08715412,0.10546471,0.15706202,0.17562306,0.12969778,0.27304432,0.114949726,0.13145389,0.20801331,0.259557,0.19561669,0.08051281,0.16195044,0.17839815,0.2120778,0.18365787,0.04689782,0.14188614,0.21509191,0.25548878,0.124885984,0.2513299,0.16220424,0.23403376,0.23682356,0.19279045,0.07785865,0.3611411,0.19735254,0.22748189,0.10484996,0.14628266,0.2494219,0.10825303,0.31374025,0.12066131,0.2602074,0.15220156,0.18567984,0.15401784,0.07826078,0.37331644,0.24762504,0.20854847,0.102935605,0.19143131,0.5357403,0.11730367,0.12187259,0.3816174,0.21212904,0.17409575,0.25143573,0.1761089,0.392323,0.21522039,0.117948085,0.15407024
SPY210676,-1.1405319,6.4188495,-4.4345407,-9.97138,10.707847,-11.464832,-0.6566978,-0.5460428,-0.5919893,-5.641408,10.121736,11.392513,10.004169,4.934857,-13.123665,-6.515166,-3.699764,0.85472125,5.0569324,-12.428321,-5.9451213,-3.0798898,5.548967,3.9053848,9.458502,-14.599382,-1.1839801,1.0893389,0.8022313,-9.68095,-14.990702,-11.505702,1.5557098,-24.639462,13.149729,3.8443656,1.2379923,3.3977947,-15.373039,6.0013013,-10.116791,-2.7342,-19.891815,-11.229357,-7.8120174,15.391761,5.967362,-23.581526,-14.701885,-14.4414625,4.7389345,14.828459,-27.991297,7.3241425,3.1911256,-1.5791558,-16.558931,6.525501,14.450219,0.86288786,-32.691013,-11.681445,-10.11929,-7.5573993,0.053152453,0.07878134,0.20779246,0.120668024,0.15049063,0.20282717,0.09903129,0.046527676,0.11005847,0.13139024,0.09635262,0.1994209,0.11671046,0.06012672,0.19064252,0.19336492,0.13899055,0.15598114,0.24880373,0.12477458,0.2813706,0.06569763,0.22574542,0.12303958,0.14835836,0.28930348,0.06910186,0.17646028,0.15417664,0.19633678,0.23905031,0.10515086,0.09541743,0.1618461,0.14983374,0.18461871,0.09802141,0.08445506,0.21176542,0.12695788,0.29414645,0.08998653,0.16869763,0.16545418,0.13749965,0.14418574,0.108056605,0.1849282,0.12438342,0.12089901,0.16205925,0.10539129,0.32523143,0.12460195,0.077724434,0.1970852,0.15305918,0.084432796,0.15342733,0.1744656,0.25174576,0.07316101,0.13026774,0.12686786
SPY231886,-2.6472867,9.821805,-2.9449275,-12.663051,16.609102,-15.531265,-0.35864136,-3.8446848,-3.2666402,-3.5663202,8.193566,11.449398,12.203747,4.7159176,-17.636827,-10.737142,-6.3685894,3.1581616,-0.8403905,-11.712239,-7.7199254,2.4884522,8.203189,4.630808,1.71892,-4.905194,-3.528757,8.145555,1.2003789,-5.839651,-12.803473,-15.228538,-1.5033303,-34.418583,12.547504,-1.460856,5.6408305,4.030335,-11.118287,7.008586,-6.0007353,-4.6181254,-25.270948,-11.684847,-9.283207,13.714518,2.3199558,-32.902138,-16.64947,-17.299042,4.618375,16.950846,-40.348843,5.797658,5.4456515,6.798709,-13.890331,11.802235,20.432034,-2.4007947,-39.85201,-16.971935,-9.877989,-8.638167,0.07698004,0.09743592,0.12669425,0.16485955,0.2520247,0.19881396,0.0997255,0.12570287,0.12117613,0.22096293,0.12738575,0.27549896,0.11495639,0.15830676,0.22624283,0.2721599,0.21820737,0.10871218,0.09816836,0.16749094,0.24685551,0.17516015,0.04533429,0.15990846,0.17427744,0.28927502,0.104528934,0.25022012,0.17383724,0.28078958,0.22384845,0.16817981,0.07427153,0.4036472,0.18776909,0.21724448,0.12635043,0.13444003,0.2741975,0.09913058,0.25472707,0.10151359,0.2627582,0.15939002,0.20145975,0.14841913,0.09594282,0.36014754,0.23741361,0.15519777,0.11549708,0.18963684,0.49240667,0.101644225,0.1031552,0.31141445,0.16640027,0.16886851,0.17272641,0.16922727,0.34228915,0.2044198,0.09810334,0.15974535
SPY210669,-2.6426582,7.155928,-4.7474427,-13.966283,8.52515,-6.161536,0.09477053,-1.5812321,0.056855608,-6.1494985,6.6889267,13.74492,11.517757,4.0460887,-18.205708,-2.8519735,-6.6769137,1.1508622,4.154011,-9.479172,-9.69912,-2.3307111,6.560058,6.336116,6.473542,-6.685204,-0.12458936,2.7741435,-4.048733,-5.720398,-7.8338337,-10.3172655,-0.010591189,-29.42595,14.050951,2.6784327,4.466601,6.0813084,-7.5411224,8.197524,-16.266993,-0.81960034,-24.498632,-8.74103,-4.193613,9.885541,2.923218,-26.128658,-11.313536,-12.799406,5.58796,14.043479,-26.171581,6.940895,2.0561497,-4.9685383,-18.353052,9.45126,14.240315,2.3195243,-33.298027,-11.716072,-8.18716,-6.1885343,0.07001651,0.09193181,0.15782896,0.15923852,0.14432748,0.28028387,0.100639544,0.036401495,0.16406064,0.091846004,0.123361036,0.2446328,0.09537912,0.093317755,0.23587877,0.2145298,0.18677498,0.10767149,0.16776244,0.17885627,0.2988272,0.08865705,0.087156646,0.15288371,0.17466858,0.21242759,0.06885552,0.10024028,0.21958777,0.17390364,0.21297649,0.1569907,0.073668614,0.22750986,0.22017771,0.11661829,0.08299125,0.16977835,0.26189375,0.12698312,0.36332068,0.118369155,0.20909382,0.1267365,0.19406651,0.1879489,0.06922587,0.21378297,0.22845486,0.14536025,0.084072836,0.11419071,0.35522953,0.09087194,0.07998094,0.24700777,0.18585645,0.102686636,0.14697936,0.10704693,0.25417852,0.090508826,0.10393387,0.14657876
SPY231757,-2.4968922,9.566329,-3.1173978,-9.988454,13.576902,-13.010397,-1.7622094,-1.812114,-4.426622,-6.5844893,9.23411,6.8327,9.85487,2.05652,-16.007406,-7.7290154,-2.4603138,3.8985848,-0.61434895,-12.648955,-7.9838133,-0.48442507,7.554003,6.106501,4.7180715,-8.772949,-2.0867255,3.6745152,0.59015036,-9.216465,-13.252181,-12.800325,-1.589016,-27.935888,10.045787,1.1928455,4.33373,2.223511,-11.804574,7.187442,-7.7460556,-3.986073,-22.193497,-9.517217,-6.252576,12.704629,3.642275,-25.890017,-14.2762985,-16.548208,5.8013067,13.162159,-32.41201,4.4424996,3.7438164,1.3959965,-14.993998,8.310112,15.922323,0.42013302,-37.264637,-13.903855,-9.72615,-6.557279,0.06353721,0.11631341,0.1285884,0.12549594,0.2784827,0.20071836,0.115133815,0.058647625,0.099846005,0.09490785,0.13698857,0.23569727,0.10403944,0.11069582,0.24108079,0.18883124,0.12759168,0.06944769,0.093664505,0.18074453,0.28124788,0.07325075,0.06645359,0.20794693,0.14995156,0.18367985,0.101498775,0.09028148,0.17252438,0.22924432,0.25760862,0.15289018,0.05254109,0.2665576,0.12709726,0.15974149,0.07886274,0.08507591,0.24079567,0.11281885,0.22840625,0.12497814,0.26341063,0.1306582,0.12770748,0.16693479,0.07657677,0.22346252,0.19020711,0.21914332,0.12502691,0.13435473,0.3310377,0.09434189,0.1342283,0.18841289,0.17381777,0.07956228,0.14798203,0.14745711,0.47571102,0.17514688,0.13437001,0.10776972
SPY212712,-1.3515469,9.783067,1.1993053,-8.727129,16.39556,-16.438456,0.33279794,-1.2027843,-4.085308,-9.091794,11.412907,10.271556,13.417864,3.8917055,-17.645382,-13.843057,-4.5075154,4.8344917,-1.2948952,-18.340925,-2.25182,-1.7528632,9.302623,5.650923,10.266127,-13.166728,-4.312919,4.0217004,4.5501947,-10.870453,-18.863363,-18.631134,-0.3637726,-35.046116,16.178446,6.732825,4.5103416,4.1302857,-19.430206,11.47749,-10.143161,-2.7875361,-27.257004,-14.492112,-9.542816,17.554495,5.731866,-33.841785,-22.053354,-20.058678,6.9901485,17.331348,-44.34483,3.7877634,2.8307586,1.5321037,-22.102077,8.92045,17.672682,-0.8272379,-44.53424,-17.409794,-11.092199,-11.593739,0.028400593,0.06079848,0.06948633,0.089694746,0.13314459,0.1640012,0.04454992,0.03689992,0.10364274,0.077401675,0.05948971,0.13454619,0.07363386,0.05996264,0.12088828,0.12280821,0.07750467,0.048073985,0.07391637,0.10038249,0.09380289,0.049098894,0.034192495,0.06805345,0.11904621,0.104690105,0.059552584,0.098211125,0.049011018,0.09750209,0.120098926,0.09282911,0.035505477,0.17797998,0.11730816,0.0920654,0.052438535,0.06694697,0.12130368,0.09979884,0.18268196,0.094910026,0.15549882,0.08457858,0.05973992,0.08312264,0.033252757,0.17848898,0.11107699,0.10809943,0.07439191,0.08872187,0.23214988,0.0765319,0.07523289,0.1366685,0.15927282,0.07511455,0.11273935,0.072294205,0.22301215,0.097210884,0.09091982,0.060829468
SPY212760,-1.6136695,7.1222196,-2.2758636,-13.166441,9.649535,-8.830971,1.156525,-1.6232642,1.5102016,-7.1270156,7.9933786,17.180555,13.217518,5.8955727,-17.591074,-6.735676,-8.702172,1.8546724,3.7346897,-11.881252,-5.403774,-2.0749254,7.7531176,5.0391903,9.080633,-8.660932,-1.7629409,3.515288,-0.8746215,-5.633271,-11.053918,-13.951828,1.279259,-32.462914,17.706213,4.52322,4.606529,7.1107416,-11.807697,9.756158,-15.861719,-0.43395332,-26.785692,-11.636766,-7.849619,13.1581955,4.1425223,-30.848356,-16.04545,-14.291772,5.4707727,16.548939,-33.67945,6.8549433,2.2909477,-2.7200565,-20.39627,10.142411,16.76375,0.92074704,-36.36751,-14.045911,-8.176158,-9.475623,0.053411506,0.09785903,0.18223296,0.18292215,0.20610887,0.30363467,0.081101544,0.07854265,0.18583761,0.11618675,0.15104227,0.26718783,0.14319423,0.07106604,0.20896986,0.2592656,0.18161468,0.09787541,0.21577825,0.19335799,0.21695022,0.120851934,0.06490484,0.11071027,0.242365,0.30500802,0.09509247,0.19766426,0.18470678,0.2179211,0.25593713,0.19923109,0.09054336,0.30180866,0.21482736,0.13696656,0.12044322,0.16015732,0.29714456,0.12078042,0.3534526,0.13024572,0.26515177,0.16078176,0.15886271,0.23753163,0.09120448,0.33991012,0.2058155,0.1910128,0.09765383,0.19512741,0.46342608,0.18305819,0.11343944,0.31938776,0.20667708,0.13511679,0.24590011,0.13620196,0.3529755,0.17420106,0.14769974,0.14609
SPY210647,-2.9398918,9.024088,-5.301007,-11.840109,13.188739,-11.705847,-2.8361936,-2.607445,-3.5444758,-3.785825,8.366914,6.9864755,8.899464,2.40333,-16.33613,-4.994281,-2.5894947,2.0596788,0.62807536,-9.174634,-10.920926,0.66380185,6.189793,5.9590635,1.1757697,-6.6437173,-1.5868794,4.475734,-1.5319629,-7.6908436,-9.7274275,-10.800135,-1.95668,-26.772608,8.325908,-1.9110997,4.2982807,2.1257195,-8.177855,4.747,-6.7310076,-4.314656,-21.422209,-7.4275813,-5.115366,10.688125,2.0659378,-24.012194,-11.271479,-14.741409,4.7496,12.402506,-27.30181,5.6651516,5.4154754,2.258483,-11.987792,8.3727255,16.032305,0.7521029,-34.474815,-12.887103,-9.262781,-4.749389,0.102375485,0.046332102,0.11390075,0.10289104,0.08028882,0.20158255,0.12128899,0.035827648,0.04144926,0.07647044,0.03952791,0.103554,0.091446415,0.07453244,0.16896567,0.24364698,0.095052965,0.076155156,0.06632539,0.09291927,0.28286123,0.06806484,0.10273654,0.21117006,0.11740083,0.11593946,0.031927347,0.04107042,0.22922713,0.107723184,0.2112445,0.0595748,0.032171477,0.14476682,0.061188914,0.1428748,0.104540735,0.05297062,0.25655615,0.07152662,0.2902705,0.075863965,0.21155544,0.13896918,0.17988369,0.1362138,0.05615126,0.0913534,0.13593066,0.07621159,0.12944086,0.10499935,0.30037457,0.04154017,0.052861184,0.22431992,0.08305543,0.030779984,0.0886948,0.24255551,0.2215585,0.051576614,0.042782564,0.122611746
SPY211311,-0.26692197,6.3320017,1.735547,-6.323924,15.65921,-16.830437,1.3312106,0.1805231,-5.850495,-3.5260024,10.023296,4.313101,11.509494,1.6137921,-13.769869,-14.544679,-2.3027718,3.558634,-0.22964329,-10.830651,-1.6235342,-2.5797396,4.568906,3.242213,6.845936,-18.661015,-3.6238701,2.924318,3.2833986,-10.412612,-21.392017,-13.609549,-0.14522633,-28.852783,10.336922,9.072113,0.31252706,3.456472,-22.07265,4.5550327,-2.4197707,-5.1142025,-19.718258,-15.694823,-8.090342,17.709702,6.5645275,-23.534328,-17.810894,-16.002964,2.4288888,14.9333725,-34.135,2.1119788,5.549389,0.726421,-17.99434,3.9190907,10.690048,-3.3686118,-35.05945,-13.997311,-14.337842,-9.152195,0.008285403,0.002551794,0.042790413,0.027859926,0.006485462,0.0029802325,0.017310739,0.011268377,0.030433178,0.004206419,0.022355556,0.038454056,0.0014219284,0.019657016,0.0015168191,0.04038334,0.020215273,0.017793894,0.039527886,0.009748459,0.036980927,0.0033373833,0.010714769,0.008128643,0.004600525,0.019508362,0.003821373,0.013060331,0.01570344,0.0038881302,0.005329132,0.0014481546,0.01271832,0.0015306476,0.014366627,0.031873703,0.0059776306,0.0056550503,0.00826931,0.0004081726,0.026119113,0.0052702427,0.013586044,0.0052814484,0.010036945,0.023921967,0.0104961395,0.024053574,0.0044384003,0.0135355,0.0039093494,0.016006947,0.013134003,0.052193165,0.0053572655,0.0040148497,0.0020771027,0.004293561,0.052437782,0.011408567,0.026334763,0.004354477,0.0086603165,0.00057792664
SPY210651,-2.5581167,9.31339,-2.8395276,-10.353488,12.46875,-11.950114,-1.4648201,-1.6925328,-4.020123,-6.772257,8.671668,7.6305447,9.940614,2.4431672,-15.989798,-7.2220793,-3.088365,3.730145,-0.56360036,-12.309094,-7.780787,-0.5480314,7.6405215,5.9166493,4.9066777,-7.889125,-1.6256461,3.7853081,-0.09464826,-8.286878,-12.098645,-12.696082,-1.5332133,-28.180613,10.564965,1.8070575,4.522142,2.9042804,-10.929473,7.728823,-8.855876,-3.2968597,-22.367653,-9.35988,-5.9031205,12.071646,3.34186,-26.127577,-13.958079,-15.967516,5.902845,13.208146,-32.015774,4.402541,3.099657,0.47143728,-15.577256,8.47642,15.603462,0.57039726,-36.442493,-13.49255,-9.164485,-6.7224255,0.069520876,0.10742741,0.18013066,0.14327176,0.25668034,0.21315622,0.1031217,0.055017717,0.1195763,0.1058252,0.13334718,0.1998914,0.0695224,0.10783315,0.18357542,0.22643478,0.1298391,0.085046664,0.123137206,0.21024764,0.30115706,0.076926075,0.06365613,0.16193461,0.17678705,0.21408649,0.10399583,0.08948051,0.19688106,0.23035397,0.28310433,0.1555794,0.045758836,0.17908384,0.13347158,0.17191288,0.057751257,0.1110579,0.27647614,0.11545001,0.20990108,0.11684068,0.17997874,0.12336364,0.12391141,0.17434375,0.09315411,0.16530988,0.22059536,0.20484035,0.095427655,0.08703589,0.34806398,0.10909922,0.11404507,0.18197319,0.16997066,0.06716184,0.10903971,0.12478973,0.3811079,0.14502303,0.1366894,0.12286853
SPY201167,-1.4620854,7.8575253,-0.9089833,-12.401863,11.781539,-11.977535,1.1546075,-1.9814782,-0.14965294,-6.7447166,8.050353,16.200592,13.339184,6.091604,-16.74622,-9.9734,-8.234138,2.8957243,1.4661257,-12.771855,-3.910661,-0.6407543,8.410538,4.131316,7.2403193,-7.981421,-2.7046738,5.6737366,0.80780715,-5.2384825,-12.51562,-16.043495,0.7327521,-33.816017,17.079443,4.05232,5.04158,6.7648497,-12.807276,9.685687,-12.36733,-1.3722068,-26.832949,-12.761597,-9.135522,14.178094,4.044539,-33.54054,-18.012697,-15.901149,5.160071,17.555065,-39.229065,5.3579626,2.8026695,1.1724453,-19.221846,10.427301,18.642513,-0.94995403,-38.52356,-15.789934,-8.531443,-10.877917,0.06809126,0.100817166,0.1632867,0.17633122,0.17512558,0.22013357,0.08220297,0.058309846,0.16727614,0.08776621,0.0964813,0.3024143,0.1512909,0.10653433,0.22041625,0.21805818,0.17135704,0.07222957,0.18230273,0.15124954,0.24489047,0.09766687,0.04687113,0.13235986,0.1706911,0.19056424,0.079436265,0.11818661,0.1704703,0.16344042,0.20507595,0.16880476,0.08986482,0.30287823,0.24838722,0.11942724,0.092275694,0.14466384,0.23920204,0.11970283,0.30553776,0.110820316,0.28795806,0.16333266,0.16360301,0.18549716,0.081226185,0.29460526,0.21908599,0.15826765,0.093838215,0.17391533,0.39003757,0.16766535,0.0765063,0.23289455,0.21313575,0.11824102,0.17618012,0.13952689,0.33019945,0.14515176,0.118439965,0.15938735
SPY212584,-2.496472,8.353276,-2.9349928,-14.162504,11.495214,-10.466175,0.378462,-2.73603,-0.6579027,-4.8394194,6.9505897,14.4654255,12.430713,5.26457,-17.614794,-7.2658243,-8.133347,2.398446,1.6377915,-10.041946,-7.242136,0.3616861,7.934049,4.921614,4.045233,-4.49498,-1.8813835,6.272879,-1.3962165,-4.3806806,-9.230028,-13.620263,-0.2284097,-32.81883,14.589279,1.3640189,5.373826,6.104779,-8.439885,8.2728615,-12.005245,-1.9972554,-26.205042,-10.399757,-7.2237854,11.742557,2.4079394,-31.495224,-14.090903,-14.356124,4.7913284,16.512247,-34.7724,6.2217464,3.719688,0.96870404,-16.540716,11.274104,18.275084,-0.044291854,-36.348007,-14.698643,-8.220875,-8.4869995,0.06500968,0.09724785,0.15196535,0.20004313,0.34955096,0.38863036,0.070556045,0.1183074,0.1708036,0.16064854,0.0795015,0.2214067,0.09495882,0.10523527,0.18636109,0.40368873,0.17278269,0.097064905,0.24371321,0.1972501,0.23031673,0.20508274,0.050613113,0.14597803,0.23806727,0.22382037,0.14390065,0.31442955,0.21587726,0.15063389,0.27582833,0.2642582,0.056483768,0.348034,0.1567037,0.22329794,0.09138038,0.112213455,0.25900054,0.08179207,0.3940999,0.14060092,0.220095,0.18813656,0.23441195,0.17616506,0.07014988,0.4049045,0.3141662,0.22028752,0.07209602,0.22289674,0.72917324,0.14682749,0.1287242,0.50265056,0.20623127,0.16695942,0.2960021,0.23340449,0.3405346,0.26940975,0.10022777,0.18269183
SPY231873,-0.15537405,7.343413,4.371633,-5.9035625,12.742035,-14.683678,1.7106367,0.17829397,-4.5518827,-7.553069,8.948567,10.01935,10.926545,4.504721,-12.844958,-14.691558,-3.6237552,3.5156186,-2.8357592,-15.475007,2.6869025,-0.92839545,8.813239,2.9456942,8.804369,-11.314742,-3.522887,5.2285423,3.7773693,-6.593599,-15.423476,-17.29151,-0.45215958,-30.401287,15.5193405,9.135464,3.594585,5.141416,-18.28872,10.060404,-6.9221663,-0.18619654,-21.21063,-12.869463,-8.244037,14.390777,4.090361,-29.672302,-21.86734,-16.143707,4.9845376,15.28178,-41.516464,-0.06624219,1.3273946,1.6777405,-19.239038,6.2135906,14.035771,-2.43491,-35.864132,-14.644256,-8.717503,-11.519192,0.07474528,0.09724347,0.42872748,0.36171392,0.33115906,0.27626392,0.118668556,0.09940779,0.439541,0.10710146,0.13339923,0.5088646,0.12683056,0.18602528,0.15664661,0.44049042,0.2798142,0.111659355,0.3879913,0.18403374,0.37752858,0.10028596,0.0999696,0.07747694,0.19722985,0.18980375,0.13566782,0.20455928,0.097717024,0.2360316,0.23838463,0.21458456,0.16865999,0.29980364,0.24542648,0.34648594,0.08570258,0.19044495,0.32017553,0.12581003,0.3753247,0.19278373,0.25076818,0.17311522,0.15566123,0.19292872,0.15371466,0.2859204,0.36313248,0.18139185,0.108010225,0.16719145,0.516285,0.41508043,0.09627105,0.1882878,0.19133072,0.18638667,0.27276763,0.10757356,0.3115565,0.13715981,0.17760624,0.14790344
SPY202496,-1.3561363,8.714229,-0.32200146,-11.79941,14.101973,-14.251922,0.926937,-1.8209859,-0.92980087,-8.130651,9.854307,15.546936,14.293258,5.9419456,-17.960758,-11.781596,-7.6370034,3.571529,1.051632,-15.710041,-3.4813166,-1.2009368,9.023797,4.8096576,9.107751,-10.7771225,-3.6086144,5.1075773,2.4095943,-7.6844053,-15.791362,-18.069353,0.6887657,-36.087067,18.031178,5.201372,5.0278664,6.3554425,-16.289474,10.977582,-12.5514555,-1.9207748,-28.641981,-14.339681,-10.120686,16.514772,5.0850453,-35.87036,-20.715025,-18.411243,6.126267,18.725399,-43.19055,5.560136,2.901878,1.5967431,-21.523859,10.463451,19.765102,-0.97890306,-42.987267,-17.23251,-9.952855,-12.048115,0.062423084,0.10360669,0.18317573,0.222897,0.14053151,0.19629394,0.067288764,0.072106495,0.17822878,0.16406704,0.09634645,0.34555393,0.14501318,0.12252973,0.25940824,0.14510813,0.18918897,0.077934586,0.20087692,0.18024202,0.22069897,0.116443604,0.035882466,0.16977905,0.23389082,0.17650923,0.04597102,0.16719186,0.13312925,0.17602135,0.13757008,0.10339227,0.09324939,0.29431608,0.22931205,0.20033398,0.100011274,0.14539127,0.16027468,0.21926527,0.3973745,0.11993419,0.32375413,0.11234345,0.14030525,0.12323848,0.0631099,0.25041074,0.123390354,0.13471109,0.15799466,0.17182037,0.2125671,0.17956357,0.110427044,0.28898108,0.3273897,0.13568996,0.20044674,0.14992177,0.33093235,0.102990545,0.09846779,0.09404185
SPY231770,-1.7371104,9.924094,-1.0571587,-8.577491,16.093449,-15.904618,-0.9939,-1.4362863,-4.7575083,-7.7148533,11.051965,7.4085484,11.507765,2.3860302,-16.559654,-11.583096,-2.6190913,4.64477,-1.0514419,-15.860628,-5.0572495,-1.398622,8.213274,5.980426,7.792118,-12.20237,-3.6410718,3.3974538,3.6426618,-11.167942,-17.74905,-15.74103,-1.1322047,-30.801888,12.429073,3.5498064,4.142443,2.3087885,-17.027472,8.786188,-7.463803,-4.305554,-24.1051,-12.363446,-8.434711,15.972792,5.2044396,-29.137583,-18.57338,-18.8507,6.427484,15.014293,-38.58074,4.100989,3.8935575,2.268052,-17.920105,8.18736,16.789068,-0.48370612,-41.542774,-16.07916,-10.964388,-8.745391,0.07426728,0.15362331,0.15957303,0.14014904,0.28691134,0.20327546,0.1283232,0.08111609,0.13700937,0.14079869,0.13194571,0.29496822,0.0927191,0.1623556,0.33380875,0.20481999,0.15739216,0.07669948,0.10930199,0.18843935,0.32680422,0.09016318,0.06595793,0.2618199,0.19935435,0.16220017,0.07259875,0.18285714,0.14066,0.26078084,0.20203008,0.11182239,0.06610155,0.26460668,0.17109972,0.22476217,0.11777984,0.1288476,0.1666711,0.19599655,0.3769441,0.15936086,0.3217751,0.11183427,0.14395526,0.12335161,0.062114928,0.22125886,0.110836774,0.2410926,0.19639505,0.13790879,0.24732849,0.11943062,0.16559365,0.24897362,0.25240454,0.108074114,0.16118723,0.20922063,0.5015171,0.16126138,0.12122439,0.12262926
SPY231743,-1.5562636,8.756809,-1.8427969,-9.541743,13.671753,-15.160776,-0.71570665,-1.5391675,-4.005406,-6.133433,9.240616,8.6583605,10.633474,3.1843433,-14.078157,-10.468441,-3.120499,4.0132384,-0.5549214,-12.8460045,-4.7673187,-0.36595964,7.888519,3.9886825,5.4446473,-9.981888,-2.863169,4.522123,2.5966623,-8.476908,-14.83442,-13.785397,-1.065048,-27.656698,10.893518,2.54091,3.3492267,2.2296932,-14.731447,6.7603617,-5.2222223,-4.0869226,-20.792002,-11.380928,-8.266283,14.593982,4.2001276,-27.083132,-16.334309,-16.16594,4.55607,14.555358,-35.45048,4.227748,3.9619553,3.436788,-14.798101,7.913283,16.65211,-1.6055008,-36.06885,-14.291244,-9.7739105,-7.946117,0.079623654,0.16182357,0.15863587,0.12275331,0.25504926,0.18711273,0.108551666,0.06564275,0.13613087,0.15606837,0.1745724,0.2743412,0.10178459,0.1586948,0.3075588,0.24455047,0.13493249,0.07597725,0.119353086,0.2099463,0.27432293,0.10110471,0.053116076,0.25795272,0.20323706,0.18970366,0.08569164,0.18185222,0.11446358,0.27175286,0.23639528,0.13374898,0.07864811,0.25996354,0.15036859,0.16922656,0.12579137,0.08925709,0.20028168,0.1547016,0.34568772,0.11862911,0.3210382,0.15493558,0.14504647,0.1410576,0.07222039,0.22266027,0.16781875,0.2334768,0.20498271,0.14160544,0.31347448,0.1256488,0.10866322,0.22647594,0.2176364,0.097668186,0.14419124,0.22269167,0.49950957,0.15709986,0.13071647,0.12365649
SPY210665,-2.5374231,10.948289,-3.9740112,-9.665579,17.977596,-13.990175,-3.5988781,-2.5403306,-4.687567,-6.691417,11.680386,4.8043356,10.362583,0.9074489,-19.684612,-8.114732,-1.115888,3.7286532,0.12172934,-14.998882,-11.4710455,-2.0290253,6.210201,9.371344,5.844147,-12.599866,-3.5757504,1.8981221,0.9762133,-13.220971,-17.237473,-14.715879,-0.9638696,-31.233128,10.855212,-0.7951939,4.769383,1.7438391,-13.890404,7.907363,-9.654914,-5.5863476,-26.451725,-9.962036,-6.5990133,14.692482,4.972085,-27.506111,-16.13904,-20.452831,7.8752894,13.2953615,-33.77561,5.3648114,5.8027835,1.2830534,-16.88387,8.221349,16.775745,2.4118724,-45.559017,-16.790873,-12.018642,-6.4851084,0.061464813,0.12908737,0.120089926,0.12780666,0.3056841,0.16030057,0.089384265,0.07825594,0.100391395,0.10055659,0.12396636,0.19281629,0.09045786,0.10102961,0.20161968,0.19715548,0.08470199,0.10079535,0.15325415,0.17883657,0.174597,0.09907227,0.099266596,0.16122492,0.2033425,0.2543504,0.11629559,0.100601204,0.19982952,0.17720038,0.27770716,0.17339799,0.082907885,0.26244938,0.0924822,0.17768654,0.10453123,0.06887059,0.24409926,0.113305956,0.13035041,0.11672648,0.22946809,0.12339648,0.09608702,0.16263919,0.10581881,0.20999894,0.19194138,0.22133762,0.09583238,0.086542875,0.3513858,0.0705385,0.14653555,0.16344427,0.1425232,0.113871515,0.08454143,0.08846532,0.4490233,0.21128678,0.09703434,0.08436561
SPY231688,-1.6656635,11.106365,1.0930904,-6.034272,19.368458,-17.535637,-0.65214574,-1.6870176,-7.267056,-7.668628,11.71202,3.3552172,11.466435,0.33382568,-18.18375,-14.531478,-1.0595645,5.792433,-3.6296601,-17.14815,-4.457782,-1.3712597,8.241633,7.4588914,7.8682213,-12.990762,-4.820896,3.39819,5.9779043,-12.974769,-20.464825,-17.257477,-2.0111277,-32.372158,12.091045,3.9490538,4.890191,1.5855662,-18.859951,9.529257,-5.867559,-5.30723,-24.999672,-12.749482,-8.537406,16.03197,5.2849956,-29.357302,-20.1124,-20.744518,7.2843785,13.717189,-41.413063,1.9282526,4.567606,3.1243846,-18.471869,8.284349,15.2698145,-0.7934697,-44.753586,-17.675627,-11.646285,-8.8140955,0.06460945,0.15095887,0.35372916,0.2715942,0.27791485,0.17192085,0.2581435,0.13887466,0.233691,0.102586165,0.1588159,0.26356348,0.078398466,0.15767512,0.32659662,0.3579846,0.09606603,0.06533312,0.24040286,0.107202426,0.5172363,0.0788345,0.10701018,0.25675112,0.10700116,0.16007228,0.07557457,0.204714,0.1988816,0.24077977,0.18712397,0.09313437,0.0889907,0.18726392,0.10738666,0.39433768,0.07006495,0.09882997,0.20669585,0.084905796,0.3484254,0.18821341,0.3592896,0.11437174,0.06822641,0.12853798,0.092182584,0.17556354,0.13623618,0.22495368,0.158239,0.12266007,0.2725846,0.35944974,0.21168959,0.13296287,0.11776531,0.11456508,0.32358947,0.23088574,0.5596507,0.17815669,0.11766551,0.12593257
SPY210702,-2.9170392,8.736977,-4.3652077,-11.914207,11.579166,-11.163696,-1.5194106,-1.9620974,-3.0704727,-5.286303,7.9119368,8.958049,9.947924,3.107324,-15.842348,-5.679055,-3.8645082,2.7155483,0.775309,-10.184492,-9.029292,-0.18184415,7.2342234,5.514022,3.3802903,-6.512024,-1.1222954,4.401466,-1.3521848,-7.1909537,-9.945006,-11.301092,-1.3792098,-27.461975,10.035303,0.5910816,4.2336316,3.048208,-8.980697,6.310025,-8.816828,-3.282695,-21.954739,-8.578961,-5.449064,11.185757,2.6206675,-25.377707,-12.085932,-14.554024,4.9782577,13.5432205,-29.364313,5.463385,3.897939,0.54852647,-14.100993,8.788637,15.939862,0.6829678,-34.07257,-12.697708,-8.854959,-5.9099736,0.08768537,0.070999786,0.17085257,0.1337112,0.16367565,0.19680206,0.14708398,0.050687928,0.1023934,0.116555855,0.07888952,0.24347998,0.12215856,0.108070366,0.20189059,0.23506755,0.14223555,0.07576327,0.104957625,0.13361017,0.35365006,0.072883375,0.10716556,0.174202,0.21451648,0.1447945,0.06620191,0.06361805,0.20338275,0.1329638,0.21630521,0.14852974,0.077853434,0.17845432,0.19036032,0.21569803,0.08293419,0.10514259,0.27200058,0.13931827,0.2638661,0.095548786,0.18249732,0.17912784,0.1783993,0.1659795,0.084312655,0.21814428,0.21327746,0.11430033,0.096708134,0.14684466,0.3824073,0.09567889,0.11305483,0.19354689,0.19528545,0.0670733,0.11976874,0.16030772,0.24591269,0.090680905,0.077820465,0.17675483
SPY210704,-3.2982974,8.687626,-5.7122574,-12.413139,12.042617,-10.309782,-2.7054074,-2.0858822,-3.3542225,-4.7181807,8.010142,7.6519065,8.914879,2.410033,-16.674065,-3.8574357,-2.4274638,1.9760959,1.5218015,-9.56216,-11.591121,-0.36349708,6.023979,6.5289845,2.2207038,-6.9289875,-0.996098,3.6877818,-2.765937,-8.206971,-9.035957,-10.301738,-1.6065032,-26.656803,9.033217,-1.0246941,4.273721,2.5759757,-7.606133,5.445285,-9.250189,-3.4086332,-21.818716,-7.232802,-4.213431,10.333962,2.4155567,-23.581093,-10.744592,-14.558728,5.351002,12.5195,-25.860996,5.875285,4.423402,-0.0868327,-13.283714,8.147927,15.194595,1.9800496,-34.478756,-12.348564,-9.291322,-4.489718,0.07225938,0.055929806,0.10097673,0.12340036,0.13342224,0.16912138,0.09936577,0.053036787,0.06134131,0.1141197,0.09181697,0.13708504,0.083747074,0.06405879,0.13960224,0.16588184,0.110161796,0.081294745,0.124664694,0.13471523,0.23403445,0.1046722,0.10328174,0.1269455,0.21309671,0.2254169,0.069221556,0.1058857,0.17760117,0.118568726,0.22471014,0.0809869,0.062023435,0.12988316,0.08564568,0.17582442,0.09405905,0.07549951,0.23687108,0.09546312,0.22661027,0.08411327,0.1218821,0.12931252,0.13453332,0.14910947,0.09243144,0.11474661,0.15628989,0.09429445,0.0746005,0.0948027,0.26861033,0.056066338,0.09243802,0.18537943,0.15073411,0.08243967,0.101081416,0.13826814,0.17956583,0.070539,0.05793304,0.10492944
SPY231696,-2.1191316,8.353292,-2.9024656,-11.203866,11.50795,-11.631101,-0.7146952,-1.2598124,-2.1619759,-7.1568937,9.110757,10.954558,11.224232,3.9123864,-15.897859,-7.2391753,-4.603614,3.0283003,1.3840431,-12.74464,-6.6372557,-1.7130979,7.7842555,5.2534275,7.321968,-9.769206,-1.6449422,3.2256246,-0.09547269,-8.119069,-12.804639,-13.163844,-0.34556502,-29.007528,12.911244,3.3028924,3.8565612,3.8688188,-12.679777,8.29332,-10.82901,-2.532524,-23.272488,-10.83059,-6.7797155,13.545404,4.073445,-27.541908,-15.128465,-15.720409,5.6748967,14.845175,-32.54284,5.595237,2.8484297,-0.77134985,-17.63106,8.416919,16.245926,0.5723076,-36.383575,-13.406396,-9.298428,-7.879165,0.06799152,0.11140608,0.16185717,0.18421079,0.23536776,0.26748344,0.10942506,0.06974519,0.17016478,0.08780459,0.15122437,0.32013026,0.14306721,0.13183811,0.2363819,0.2302154,0.21022256,0.09745617,0.1917528,0.19233944,0.27325448,0.11652662,0.07849319,0.15914384,0.20313211,0.2890748,0.098849274,0.15222187,0.213712,0.24077712,0.29278657,0.17225057,0.089334644,0.31718507,0.21626247,0.13229622,0.12659313,0.16710165,0.300774,0.1344904,0.3181572,0.121685274,0.28721842,0.16231759,0.18110675,0.21623151,0.09970644,0.3228437,0.20609833,0.20143144,0.119280845,0.1811043,0.41644794,0.15072338,0.095863454,0.25671306,0.20491861,0.14625883,0.1951797,0.14465919,0.39884776,0.1676134,0.14014429,0.14871928
SPY210724,-1.6259688,7.3051667,-4.736354,-10.650039,10.744678,-11.532318,-1.3068203,-0.8088214,-1.7601777,-5.6830063,9.3909445,10.0718565,9.726382,3.9815814,-13.849105,-5.854522,-2.993927,1.6788722,3.212236,-11.382445,-7.20426,-2.2631116,6.499209,4.4145722,7.106809,-11.774591,-1.1076912,2.1362088,-0.15160783,-8.882717,-12.763422,-10.909175,0.10924854,-24.548422,11.135856,2.2550662,2.0235665,2.491337,-12.679203,5.6567454,-8.774165,-3.0776703,-19.741747,-9.877786,-6.540978,13.495281,4.54251,-23.228683,-13.296997,-14.302103,4.56792,13.89201,-27.363157,6.4419866,3.7129436,-0.7139198,-15.064054,6.738509,15.021342,0.72312546,-32.499615,-11.595665,-9.456831,-6.4937816,0.074882805,0.08565197,0.17652531,0.14116955,0.13712105,0.19888052,0.10513719,0.0491305,0.1232637,0.08939074,0.11916481,0.18687296,0.10715617,0.096409515,0.19910972,0.19410343,0.1445688,0.12925231,0.2341567,0.16851625,0.285198,0.12652539,0.16225845,0.14286698,0.23096196,0.335549,0.06853939,0.20847376,0.21623135,0.22279973,0.27412325,0.10168983,0.12307517,0.17726398,0.16282699,0.15714006,0.1152157,0.08703803,0.28583103,0.11818964,0.28826,0.07893449,0.17664462,0.15814589,0.15590079,0.20423236,0.1489782,0.18945418,0.1664568,0.12133724,0.14071436,0.10012249,0.29266125,0.12820396,0.08020276,0.22648877,0.17806797,0.10170542,0.12518339,0.15823404,0.25609928,0.075499445,0.10864291,0.12576154
SPY202493,-3.3107452,10.03867,-2.482382,-13.928452,13.395889,-8.916298,-0.6949411,-2.246693,-1.6763635,-8.753626,9.048773,12.722521,13.9148855,3.9308975,-22.882378,-6.262329,-7.1886363,3.7789757,1.5775405,-14.968593,-9.8589735,-1.6681346,8.355288,8.736283,8.121733,-7.539739,-1.797642,3.4088604,-2.3021345,-8.640077,-11.66603,-15.414119,-0.7529532,-38.00791,17.214996,3.9129174,6.7645106,7.061475,-10.469858,12.614803,-18.975332,-1.2232299,-31.799826,-11.091171,-5.576856,12.858631,3.6324651,-33.963985,-16.485392,-18.255777,8.705676,16.167812,-36.714752,6.6528206,1.8475798,-4.067602,-24.034529,11.752063,17.084572,2.7196512,-44.824417,-15.891534,-9.865292,-8.93956,0.07909789,0.08420588,0.09812646,0.18136778,0.11921527,0.22638205,0.052603412,0.053168047,0.104459986,0.08619429,0.08300825,0.17309825,0.079315074,0.07504685,0.26326284,0.17855816,0.137632,0.059824318,0.13020867,0.12646565,0.25128636,0.09776012,0.04427132,0.16432533,0.16499981,0.25055313,0.05800594,0.12010421,0.17980844,0.13731445,0.20664448,0.107063256,0.066098206,0.28293222,0.12873824,0.11071362,0.108304806,0.13888924,0.2695081,0.11123114,0.32663444,0.080891736,0.26588014,0.09845989,0.14630161,0.14872274,0.07592946,0.2076269,0.14209521,0.102963924,0.10967659,0.09779958,0.24190784,0.09645342,0.06793781,0.22272268,0.19105007,0.1444342,0.13863708,0.11708456,0.24401858,0.09862788,0.066877946,0.068782754
SPY210654,-1.4631321,7.403145,-1.5270963,-13.113482,10.97903,-11.023875,1.4278454,-1.9302078,0.99300236,-6.7915206,8.003411,17.755424,13.770293,6.3697143,-16.992567,-9.045355,-8.937084,2.3879955,2.8330216,-12.345748,-4.228086,-1.2703822,8.216662,4.2833557,8.170082,-8.530213,-2.5497127,5.038922,0.42311952,-5.242485,-12.187639,-15.478349,1.3133488,-33.596375,17.930738,4.184488,4.7155433,7.0279374,-12.822981,9.589126,-13.788508,-0.9910532,-27.1014,-12.854937,-9.197124,14.291236,4.260126,-33.238262,-17.538004,-15.255725,4.982176,17.8023,-37.694405,6.2835407,2.89385,0.04499261,-19.722385,10.484658,18.499296,-0.45442647,-37.83414,-15.413773,-8.510502,-10.812812,0.052397255,0.091710456,0.15753162,0.1748351,0.20296313,0.2658937,0.08494799,0.062234662,0.19628021,0.09334447,0.14178415,0.32231408,0.14449218,0.08888159,0.18696512,0.22493175,0.19917141,0.08550684,0.2029056,0.18579704,0.19438411,0.099843495,0.065077096,0.10729651,0.1567914,0.23310205,0.07725719,0.14614472,0.15898333,0.2209117,0.23354957,0.1765712,0.10425637,0.28208405,0.23266518,0.09303068,0.0863295,0.14863232,0.25489014,0.08785355,0.3019759,0.107012264,0.24834083,0.1576148,0.14077047,0.20563166,0.07742564,0.29727826,0.20913309,0.18670058,0.074307896,0.1777564,0.41357806,0.18247627,0.080481045,0.2319153,0.16341256,0.120423146,0.18779778,0.12912922,0.33324033,0.15612617,0.13369218,0.14202538
SPY212589,-2.6942327,7.8585644,-4.290455,-13.384601,9.9736395,-9.548795,-0.35052967,-1.8466301,-1.0249202,-5.339616,7.3361907,12.577157,11.257673,4.3667483,-16.294638,-5.0964785,-5.9996223,2.0179203,2.6460736,-9.642761,-8.371915,-1.0246552,7.4006877,5.2045994,4.856515,-6.5222826,-0.7873403,4.2090063,-2.0378947,-5.935616,-8.9529915,-11.356262,-0.44034436,-28.60809,12.42996,1.75238,4.114892,4.60135,-8.849351,7.057047,-11.644858,-2.1273322,-23.261417,-9.368478,-5.821692,11.295652,2.755563,-27.01814,-12.2269745,-13.471683,4.6962695,14.862018,-29.205616,6.5027785,3.3930893,-1.1099504,-15.944748,9.364933,16.141788,0.943503,-33.473312,-12.488291,-8.409264,-6.8479733,0.08068482,0.10133772,0.13085663,0.17896083,0.22303234,0.3704117,0.086683474,0.055550054,0.14650573,0.08397412,0.11908563,0.22719237,0.09043274,0.084887214,0.28745013,0.30026096,0.14809166,0.08669266,0.17565909,0.12782331,0.31753382,0.122814514,0.08700961,0.19523197,0.14010726,0.16397503,0.10564645,0.1259973,0.26342008,0.14680421,0.263797,0.17313828,0.06540222,0.25314757,0.1680057,0.10945545,0.104416676,0.15726635,0.27144307,0.11753037,0.46852452,0.13726108,0.27366266,0.13820277,0.2207987,0.20036723,0.062360026,0.21634479,0.20883028,0.1726658,0.119274296,0.11702735,0.432708,0.102813795,0.11768777,0.3713983,0.23477049,0.11011406,0.20304388,0.19827832,0.31051588,0.14410995,0.09869084,0.1252775
SPY231765,-2.510791,11.011525,-2.550844,-9.990467,17.926697,-15.87676,-1.8708249,-2.1560438,-4.772697,-8.201411,11.890099,7.2238736,12.33732,1.9411187,-19.510136,-10.580798,-2.7537584,4.6884313,-0.39629018,-16.796614,-8.281191,-1.7259479,8.222205,8.104936,7.8056574,-12.727075,-3.8973753,2.8471482,2.6592796,-12.885801,-18.577423,-16.371883,-1.0046573,-33.574013,12.879032,2.0742183,4.847485,2.3179972,-16.699575,9.444495,-9.875317,-4.9548526,-27.277199,-12.345618,-8.146664,16.544458,5.3308816,-31.109858,-18.629333,-20.831478,7.5544643,15.653509,-39.426414,5.4386315,4.62914,1.792947,-19.240614,9.288445,18.219046,0.81625074,-46.264877,-17.423971,-12.130388,-8.423934,0.060922265,0.13788947,0.13288237,0.17737874,0.32174662,0.15737227,0.14453402,0.07449936,0.14721763,0.09200134,0.11693646,0.38338593,0.09187841,0.17856012,0.25976297,0.18304975,0.18351157,0.059365958,0.14622714,0.13434257,0.3061429,0.08958623,0.09299224,0.24781063,0.16366869,0.15885247,0.088378586,0.11790075,0.17958292,0.24005628,0.21279591,0.10097372,0.08532566,0.21615179,0.15079601,0.20106693,0.083394736,0.10913281,0.15772428,0.112870686,0.27995494,0.16722897,0.24514839,0.1063489,0.10197323,0.096819825,0.05298051,0.18864878,0.11170484,0.217094,0.13631721,0.16787742,0.22667632,0.12109346,0.17175438,0.20692757,0.17735761,0.08063467,0.12813444,0.16451551,0.45254558,0.1645033,0.11516566,0.11802042
SPY210640,-1.1901126,8.5076685,0.5899379,-10.498379,13.334612,-13.7013235,0.8908536,-1.7352118,-1.9732231,-7.398799,8.695844,13.543081,12.631061,5.494981,-16.379272,-11.878297,-6.654963,3.7136853,-0.6033136,-14.559158,-2.6620333,-0.26610833,8.7776785,4.0684867,7.243602,-8.640165,-3.1835573,5.754114,2.0850937,-6.211659,-14.175983,-17.320028,0.037071373,-33.87941,16.340296,4.7558846,5.2072935,6.124231,-14.528612,10.317919,-10.4677725,-1.7036552,-26.173405,-12.929057,-9.25448,14.656742,4.261057,-33.73855,-19.811987,-17.33614,5.6835814,17.07617,-42.05817,3.828709,2.410027,2.407585,-19.381218,9.851809,18.407164,-1.5393009,-40.161266,-16.42514,-8.899686,-11.151436,0.054889284,0.09787192,0.1730787,0.20788951,0.22629869,0.23970415,0.06263512,0.055176422,0.20141551,0.07229674,0.0814366,0.30585074,0.13624124,0.103403315,0.17433427,0.27087203,0.17569128,0.08371041,0.2137675,0.15912898,0.23618162,0.10749197,0.04383515,0.108571045,0.16774872,0.17823996,0.08916186,0.13895659,0.16781615,0.14595973,0.19918942,0.16472171,0.090848334,0.24501605,0.18985462,0.11306906,0.076524265,0.12074648,0.23176764,0.07670208,0.31352746,0.099694364,0.24224357,0.1369479,0.129257,0.15968145,0.069092445,0.25621462,0.22814701,0.14941223,0.06294031,0.15553766,0.4217276,0.19543803,0.06278352,0.25646067,0.16518861,0.11496611,0.16587502,0.12852338,0.28521487,0.15130952,0.1048515,0.12148626
SPY201177,-1.2920418,6.620489,-1.3806703,-12.120793,9.165483,-8.462051,1.5088462,-1.2412654,2.169348,-7.913928,8.245782,17.594534,13.271961,6.139002,-17.544294,-6.908134,-8.825948,1.8078457,3.8331954,-12.82018,-4.3034973,-2.3484225,7.768813,5.021327,10.919966,-9.88767,-1.7601001,2.575862,-0.26701865,-6.056999,-11.588223,-14.270904,1.6276635,-32.364292,18.87806,5.7764425,4.458536,7.583527,-12.918175,10.498689,-16.871058,0.30286562,-26.871416,-11.829978,-8.113971,13.477956,4.6724386,-30.578506,-17.042763,-14.31061,5.7756214,16.139645,-33.759396,6.6766663,1.6472938,-3.6835165,-21.718462,9.784807,15.9025345,1.0105889,-36.163868,-13.8643675,-7.855994,-9.806949,0.04723329,0.13881817,0.15414844,0.1502007,0.21223767,0.2975468,0.10522362,0.052550994,0.2471836,0.08178967,0.15046073,0.3076689,0.12067847,0.06927567,0.1943859,0.24254337,0.19340694,0.10971059,0.2203507,0.20053315,0.18607236,0.094059,0.07790077,0.0967773,0.2064864,0.25742975,0.0650895,0.15519169,0.1711644,0.19845127,0.265599,0.1792777,0.11514961,0.25175363,0.2515256,0.0813308,0.098906994,0.18819746,0.2738086,0.093948744,0.3805548,0.1578822,0.23729058,0.15435874,0.10444724,0.22860578,0.07709024,0.2675737,0.17115654,0.2121437,0.07560241,0.15955767,0.4208794,0.18781765,0.067607395,0.27307203,0.1659483,0.12213564,0.20038986,0.12462,0.34442604,0.13827275,0.15691358,0.125877
SPY201176,-1.0699077,8.136221,1.3570552,-10.625559,11.778918,-10.365943,0.9390923,-1.3961746,-0.26068252,-8.64688,8.673008,14.870438,13.166146,5.914592,-18.473854,-10.203588,-7.913651,2.9583745,0.23305537,-15.055232,-2.3749065,-1.1402361,8.784614,5.1198134,9.333848,-8.752736,-2.655444,4.242668,0.8090676,-5.8118687,-12.680756,-17.558893,0.28488365,-35.844074,19.06924,6.882918,5.8954854,8.127277,-13.627439,12.520631,-15.360479,0.35955408,-28.641733,-12.165316,-8.129978,13.632823,4.2194347,-34.17368,-20.31361,-16.84852,6.8998604,16.522354,-40.81035,4.057547,1.2258325,-1.2520424,-22.96652,9.937925,16.978758,-0.012018909,-40.784466,-15.8991995,-7.8549066,-11.364661,0.067616634,0.11336146,0.19885719,0.2326824,0.22714917,0.2754584,0.06101793,0.06692294,0.19174793,0.1627691,0.12033204,0.28827396,0.10956821,0.082878076,0.17805587,0.24818923,0.16773635,0.08349798,0.18823709,0.23385799,0.225018,0.100681655,0.08386097,0.115779795,0.24968329,0.2022476,0.07513454,0.18766028,0.1539058,0.20199001,0.20704074,0.18516065,0.09564906,0.23426566,0.17269485,0.21553093,0.062900685,0.124069214,0.22655988,0.16824485,0.31698146,0.1608682,0.2114886,0.14742815,0.1476003,0.17401174,0.06597429,0.27977467,0.2249009,0.19403853,0.12866764,0.18265408,0.43295026,0.17644536,0.121392556,0.3199341,0.28244254,0.11797549,0.23304008,0.13620709,0.34418267,0.15727021,0.121499695,0.11977328
SPY201953,-1.5454597,7.3109083,-2.1486197,-12.064444,10.493529,-11.083557,0.63298744,-1.2001517,0.15402783,-7.304702,8.886533,15.278555,12.6233835,5.5673876,-15.793447,-7.96885,-6.95749,2.3161082,3.0470965,-12.746168,-4.733676,-2.1071136,7.97135,4.358126,9.170941,-10.523835,-1.9319237,3.3397868,0.5821037,-6.9740276,-12.855601,-14.079567,0.9664605,-30.400585,16.04626,4.6645555,3.6357782,5.467421,-13.89823,8.989125,-12.773623,-1.4028348,-24.599459,-12.207648,-8.329608,14.571853,4.644876,-29.76242,-16.540411,-15.034441,5.2055244,16.451496,-34.222015,6.4783626,2.6574955,-1.1628175,-19.276134,9.083421,16.9815,0.1455875,-36.100952,-13.840922,-8.841203,-9.562317,0.044486556,0.07211236,0.18797337,0.18181656,0.1826239,0.23468506,0.10323236,0.07251333,0.15871932,0.08182383,0.16010477,0.31524822,0.16098745,0.09128123,0.19006538,0.22797959,0.21934834,0.08343101,0.2080034,0.17536509,0.19677082,0.1180022,0.07163789,0.08877898,0.18963957,0.31288823,0.08764849,0.17427376,0.16339754,0.24426147,0.25072116,0.20264469,0.09381467,0.35240176,0.23628728,0.094505996,0.12702213,0.1729417,0.2728033,0.1156071,0.26635677,0.095695265,0.30056116,0.16121228,0.15605502,0.22733144,0.09491417,0.39140567,0.21647666,0.16629343,0.064752474,0.20271444,0.470776,0.18791667,0.08705038,0.21598919,0.16440919,0.15876453,0.2104926,0.1097512,0.33848616,0.18565455,0.1425603,0.16157922
SPY211060,-0.988203,6.405996,-1.0100464,-10.844036,9.019208,-10.441359,1.1094056,-0.8716979,0.5842187,-6.797876,7.9415636,15.510863,11.738828,5.776806,-13.809816,-8.315384,-6.9747057,2.0973594,2.4906611,-11.67999,-2.6396255,-1.7215831,7.672822,3.137616,8.856747,-9.635561,-1.7525351,3.6311848,1.03707,-5.248617,-11.81053,-13.656355,1.0478836,-28.33401,15.890832,5.1628456,3.3635113,5.757976,-13.240242,8.435522,-11.3992,-0.74680424,-22.57635,-11.688061,-8.442125,13.530544,4.5104795,-28.175724,-16.236622,-13.572442,4.420054,15.537263,-33.13875,5.196804,2.241408,-0.7607544,-17.890947,8.272366,15.897442,-0.54323334,-32.7402,-13.089468,-7.658799,-9.693917,0.062853426,0.07543116,0.19827007,0.1533456,0.16758569,0.29211637,0.091935605,0.058677915,0.1452124,0.10484538,0.16620182,0.23764996,0.09185657,0.074073315,0.23615372,0.28061473,0.17849071,0.08242005,0.19443282,0.18318592,0.26216727,0.12072919,0.04908573,0.152757,0.1843871,0.2976312,0.08273531,0.2012967,0.21427777,0.2578744,0.25070003,0.19333598,0.0689537,0.26941192,0.19552217,0.10529185,0.13356721,0.18357098,0.2907061,0.14116928,0.37457436,0.12182694,0.2569821,0.15549962,0.15767208,0.22184816,0.089916795,0.2817067,0.22722468,0.15723896,0.104637735,0.12115932,0.44712558,0.20090157,0.07685978,0.31299582,0.21224602,0.12168545,0.14550169,0.17388797,0.2705061,0.15341064,0.13715051,0.16381274
SPY210668,-3.698951,8.7865715,-6.0099826,-13.018983,12.595738,-9.441415,-3.3253117,-2.3654013,-3.556057,-4.123186,7.83306,7.226304,8.545726,2.0740657,-17.808268,-2.9595487,-2.2562118,1.5868456,1.5138761,-8.950633,-13.198164,-0.107318595,5.337816,7.4859996,1.1253629,-5.902296,-1.0409191,3.909385,-3.809623,-8.145968,-7.9919596,-10.252761,-1.851121,-27.684505,9.092269,-2.039992,4.9962516,3.0421143,-6.080979,5.4993186,-10.170325,-3.2110972,-22.869192,-6.422334,-3.305432,9.442608,1.9402758,-23.624075,-9.959823,-14.721317,5.864183,11.964331,-24.80206,5.801414,4.656444,-0.42901865,-13.054265,8.481443,14.907739,2.7795343,-35.502384,-12.697744,-9.363524,-3.8948483,0.038037222,0.049492653,0.055422843,0.101124264,0.12263606,0.13470672,0.079108395,0.037115954,0.040146638,0.113411814,0.06987957,0.12413714,0.065741144,0.040540744,0.09202565,0.10406756,0.078937486,0.070650615,0.08223193,0.11187793,0.12634121,0.06887432,0.06669408,0.069421284,0.12590641,0.11866802,0.056274723,0.046549987,0.12094819,0.07211346,0.1444073,0.06212942,0.031605404,0.10773864,0.09036565,0.13703829,0.054374546,0.086942196,0.1498842,0.081383824,0.19819543,0.07150778,0.09891753,0.07819593,0.09670938,0.092240505,0.052120347,0.08269108,0.11402504,0.078271404,0.057159703,0.06811603,0.16814972,0.03744773,0.091429666,0.15738495,0.13157739,0.051931683,0.06116171,0.064992025,0.1425506,0.061827727,0.03142487,0.061374288
SPY231792,-3.2189522,9.185193,-5.387397,-12.169357,13.1991415,-11.396438,-2.7724574,-2.4709682,-3.5909803,-4.459223,8.4198065,7.3127,9.224683,2.3652241,-16.993086,-4.859736,-2.7185876,2.292952,0.8250651,-9.910383,-11.281707,0.21785444,6.352291,6.4942245,1.807112,-6.740861,-1.532798,4.2845044,-1.9322196,-8.23139,-9.893708,-11.104965,-1.8400705,-27.751656,9.001459,-1.4142469,4.547212,2.470805,-8.204161,5.462003,-8.243283,-4.0389805,-22.477646,-7.660311,-4.9006515,10.851029,2.2939124,-24.72626,-11.531955,-15.224136,5.31411,12.831774,-27.933653,5.763867,5.019961,1.2978811,-13.021204,8.655858,16.140417,1.3691949,-35.720158,-13.175519,-9.500281,-4.9055047,0.06780108,0.05247457,0.112342015,0.13387482,0.120621055,0.16531846,0.118322,0.04511161,0.061698105,0.111261666,0.06939799,0.1816608,0.12074531,0.08910027,0.15737772,0.19812055,0.13097565,0.0975086,0.096584134,0.1547098,0.25908697,0.06340299,0.13095674,0.14409547,0.17107455,0.13212228,0.04785395,0.0723781,0.18570681,0.10377798,0.21442294,0.09814983,0.044266596,0.17190862,0.10815363,0.17666721,0.07395848,0.0557791,0.22970259,0.098626696,0.2030411,0.06790277,0.16397414,0.15538976,0.14529546,0.14726257,0.07208634,0.18818597,0.16618548,0.10675787,0.0908153,0.15862343,0.35989863,0.08323909,0.078431085,0.14705612,0.14777982,0.074755535,0.11963799,0.15256351,0.24204837,0.08302149,0.05821205,0.1326509
SPY211262,-0.33521047,5.1021533,-0.24842899,-10.19686,13.057923,-16.044489,1.2670925,-0.20629078,-3.9432685,-2.716564,7.314571,10.097628,11.275614,4.2312107,-10.884492,-13.1018915,-3.6453183,3.1593347,-0.35227397,-9.195697,-2.519762,-1.0895689,5.881269,1.1594025,4.0699534,-13.767463,-2.9342244,6.25995,1.2646493,-6.2843485,-16.287262,-12.429473,-0.09687645,-28.034132,10.283884,6.6029577,-0.25413325,3.5782557,-17.830368,2.9956925,-0.40328208,-3.8503184,-17.195436,-15.520746,-9.220819,16.59171,4.517795,-24.525843,-16.643326,-13.871822,0.24409665,16.293842,-33.717827,3.3965745,4.727575,2.9688346,-14.580504,4.9858093,13.808221,-4.439945,-30.262966,-12.729031,-11.754365,-9.541411,0.04034412,0.053422656,0.06172704,0.07161815,0.14127024,0.087759234,0.038491532,0.07622669,0.052210763,0.19766928,0.1648888,0.114307046,0.033159383,0.052052192,0.10080633,0.11444602,0.04196161,0.028288422,0.19856857,0.11672515,0.08507126,0.1460749,0.042584706,0.06727214,0.24033062,0.26326367,0.047411554,0.23027357,0.09154943,0.23941426,0.18038891,0.04334316,0.059945147,0.16967192,0.08149592,0.13139421,0.04758595,0.029129164,0.21251543,0.120051265,0.2737701,0.04294914,0.09622846,0.04777367,0.05121516,0.1095727,0.14546615,0.07128996,0.05977725,0.06525638,0.12812264,0.046838153,0.13342495,0.11325702,0.039365925,0.18311289,0.19184028,0.047205027,0.054046538,0.10889412,0.20429079,0.045998394,0.12014652,0.036200274
SPY211282,0.17337073,4.6999836,0.21576896,-10.091611,15.664047,-16.75196,2.0749836,-1.6759763,-3.7602587,0.9802069,5.0844493,10.538587,10.905779,4.7976804,-10.853422,-14.481724,-4.3807306,2.6067805,-3.6884143,-7.965217,-2.6010969,1.9462525,5.5649624,0.6145652,0.85921663,-9.69483,-3.9161541,9.965853,0.066461146,-2.0868256,-13.851805,-12.413717,-0.86625224,-31.27806,10.207485,4.357006,0.8323074,3.6655955,-13.5979595,1.7895703,3.1225536,-3.1777203,-16.763014,-14.993152,-9.9476185,14.250718,2.0250156,-25.277811,-16.798056,-13.423079,-1.7318377,16.480928,-35.46163,1.6161997,4.6497316,5.5885053,-11.785125,5.645217,13.821191,-5.4817224,-27.903872,-13.37002,-9.58881,-9.167898,0.03570953,0.036889743,0.06706057,0.048742708,0.12849103,0.08331618,0.027827172,0.050175294,0.094112806,0.13164149,0.06841956,0.10561938,0.050997507,0.042933803,0.11105539,0.07265139,0.06915543,0.06617917,0.07187333,0.071272895,0.078057,0.084554985,0.05166782,0.02477689,0.06819412,0.1437469,0.038320407,0.07497144,0.061892185,0.1171355,0.13003503,0.05289248,0.036376532,0.16807942,0.064350486,0.09567267,0.035738684,0.025482621,0.17905983,0.07516494,0.08752933,0.04168712,0.07518239,0.06391372,0.035837837,0.08381742,0.05168312,0.09244197,0.082628496,0.06782532,0.079194516,0.046659663,0.12787457,0.07037747,0.040631752,0.049574006,0.1053145,0.032508433,0.06499637,0.045931,0.15439174,0.04974193,0.08536995,0.04489791
SPY231728,-2.1941152,10.394521,-1.2216429,-7.70597,15.50163,-13.913797,-1.7661998,-1.68509,-5.7950735,-7.2690988,10.0068245,4.230679,9.60256,0.9436876,-16.568083,-9.798379,-1.2606328,4.7819386,-2.3994536,-14.333864,-6.7243614,-0.7019221,7.637072,6.840365,5.671903,-9.774436,-2.912215,3.0560544,2.6354306,-10.6058855,-15.445024,-14.135378,-2.08899,-28.548506,10.274467,1.9145906,4.823509,1.7570263,-13.528229,8.195339,-6.957147,-4.3683,-22.654285,-9.833168,-6.5801797,13.101662,4.2159514,-25.927464,-15.934743,-17.917168,6.631573,12.114522,-34.627026,2.8766458,3.6085458,1.6881695,-15.818709,8.087215,14.799504,0.3945107,-39.4972,-15.045797,-9.899464,-6.963856,0.0928648,0.11610573,0.32201165,0.32787415,0.34625843,0.27592126,0.15672885,0.08952853,0.1629903,0.09551717,0.13666834,0.27992618,0.10006686,0.12663135,0.26931038,0.42532855,0.12638852,0.11471355,0.25058028,0.19272573,0.4478853,0.09712486,0.083628744,0.22690436,0.17177677,0.2002406,0.13817059,0.0855726,0.38148955,0.20910591,0.34936142,0.2042113,0.09115618,0.27970973,0.123243034,0.2524781,0.08183275,0.11587747,0.3588873,0.11832304,0.38351393,0.1614881,0.3061498,0.14621858,0.16623212,0.17642939,0.08206734,0.19798432,0.2924214,0.22883627,0.11750585,0.14475179,0.45821628,0.2515108,0.18370286,0.27242562,0.17199332,0.08617106,0.18590553,0.22211912,0.49030006,0.20611519,0.13682844,0.13330624
SPY211174,-1.6206287,8.450744,-1.6024206,-11.6371,13.702887,-14.52995,0.45443544,-2.289355,-2.154723,-5.4669175,8.321753,13.154091,12.068468,5.3432317,-15.35006,-10.886558,-6.220362,3.344624,-0.005473887,-12.564288,-4.465591,0.526367,8.403409,3.552341,4.9163804,-7.520593,-3.0753453,6.6876955,1.6714544,-5.9338336,-13.363625,-15.458775,-0.29946366,-32.09069,14.084948,2.2054167,4.511084,4.737348,-13.110332,7.891277,-7.6218,-3.0336635,-24.004284,-12.468336,-9.423054,14.424949,3.6536317,-31.888126,-17.5761,-16.347069,4.4534926,17.112743,-39.371994,4.912252,3.7391639,4.204735,-15.857626,10.026253,19.123499,-2.0207205,-37.660652,-15.749155,-9.22004,-9.721641,0.085491225,0.13520364,0.087116,0.19937393,0.13488384,0.23343669,0.05746057,0.08509014,0.05550356,0.2313364,0.097951114,0.11349511,0.123785615,0.08100343,0.4559625,0.274555,0.15132838,0.032315552,0.0908268,0.09488945,0.32918042,0.13594386,0.061269592,0.27695218,0.1913546,0.19350596,0.10476537,0.22606225,0.25185063,0.17072523,0.12833048,0.08836969,0.029053338,0.40070274,0.10897155,0.16620022,0.17577839,0.15416965,0.21607348,0.25456262,0.61052126,0.059147306,0.5103423,0.12166402,0.22030607,0.14053747,0.07575233,0.2925701,0.110500015,0.13169917,0.22869617,0.091532476,0.21782507,0.13328457,0.08067177,0.4016541,0.41839862,0.196577,0.13686898,0.22676204,0.47669616,0.11084691,0.06508377,0.06960519
SPY201174,-1.5341765,8.270734,0.49789375,-10.558086,10.963309,-8.609365,0.32902607,-1.1923316,-0.58589256,-9.134473,8.739275,13.2500515,12.569717,5.033764,-19.227251,-7.9034853,-7.2540593,3.0371788,0.38905922,-14.965594,-4.1762753,-1.6661257,8.341529,6.057098,9.862377,-8.581346,-1.8521644,3.005356,-0.36099786,-6.6912827,-11.789758,-15.945131,-0.15359415,-34.83284,18.024038,6.800581,5.971842,7.5969915,-12.353609,12.765846,-17.01094,0.40230587,-28.38654,-11.099756,-6.5547905,12.643055,4.0622725,-31.691854,-18.47829,-16.430212,7.524477,15.052073,-36.864918,4.42027,0.57436126,-3.8422194,-23.702787,9.756527,15.0831375,1.2900208,-39.84087,-14.613315,-7.7384553,-9.958164,0.067554966,0.14193179,0.1933021,0.20759864,0.23829675,0.27393162,0.08214627,0.060822908,0.20464708,0.1368505,0.118957415,0.2606795,0.08976221,0.09696692,0.1999663,0.2617267,0.1503644,0.10975667,0.18420552,0.24852796,0.2540489,0.05254534,0.07194847,0.12484496,0.21562201,0.18705022,0.08111546,0.13866875,0.18906231,0.17970592,0.23599498,0.21658462,0.08530292,0.25840223,0.20633389,0.21471953,0.07446489,0.15473393,0.2547749,0.17871438,0.3180452,0.1762003,0.2191941,0.1332411,0.12503473,0.17591065,0.058960345,0.26092848,0.25950012,0.22401762,0.1198312,0.14658172,0.4405517,0.14564416,0.11324397,0.2713748,0.27151564,0.10415925,0.20929407,0.12122443,0.38451272,0.16258031,0.14005631,0.13308196
SPY231912,-0.9902131,6.8734217,1.0551898,-10.422958,16.17095,-17.914816,2.0597956,-2.1826909,-5.0256085,-2.0135694,6.3291874,11.934765,12.158846,5.144107,-12.606801,-16.009285,-5.2225275,3.7298396,-3.581074,-11.803419,-1.4897891,1.4174328,7.6428494,1.639699,1.9848614,-7.493943,-4.90737,10.685522,2.0301034,-3.3481507,-14.855258,-16.162348,-0.8907578,-33.68106,12.488582,3.4604094,3.4221747,4.241614,-14.97194,6.0787864,-0.8487901,-3.5416172,-21.178276,-15.244516,-10.867637,15.363554,2.5433939,-32.026787,-19.792198,-16.60593,1.5876161,18.084887,-43.374233,1.591533,4.1736975,7.1589203,-13.732131,8.287236,17.262,-4.685992,-35.39932,-16.022495,-9.749204,-11.203057,0.049180042,0.11589273,0.15100303,0.11174759,0.14666356,0.09272325,0.04893325,0.10422518,0.13127387,0.22930333,0.11734279,0.16915303,0.07048215,0.07187712,0.17305127,0.11570274,0.123416476,0.08735271,0.11124769,0.2174065,0.16011952,0.11275429,0.11183425,0.08525338,0.16590954,0.19344835,0.058765978,0.14225532,0.10238936,0.18637252,0.11386829,0.18166487,0.058378372,0.24005319,0.17471024,0.21435277,0.14931609,0.0673675,0.19888575,0.20734228,0.27103925,0.09176834,0.24841301,0.06236178,0.0745634,0.078236155,0.08034674,0.3130636,0.18025514,0.16154592,0.17983812,0.08490795,0.3784531,0.14114994,0.07175531,0.1457139,0.19463125,0.18764412,0.19076443,0.08402479,0.3942725,0.15132731,0.07790875,0.074278384
SPY231729,-2.626108,9.635033,-3.1371024,-9.698638,13.327298,-12.178396,-2.1065934,-1.6793222,-4.6197805,-6.7711244,9.148158,6.014003,9.362734,1.658388,-16.178486,-7.0519624,-1.9801571,3.8632038,-0.76179254,-12.630609,-8.630066,-0.7539991,7.2765784,6.648133,4.8035975,-8.664133,-1.8258052,3.2162516,0.13063075,-9.43303,-12.804522,-12.390408,-1.6852227,-27.50321,9.746146,1.1458727,4.423521,2.1750712,-11.080679,7.3409834,-8.372815,-3.788545,-22.095173,-8.953036,-5.613557,12.139966,3.5550697,-24.983662,-13.698779,-16.47519,6.129402,12.414682,-31.0414,4.2311363,3.4959145,0.4889333,-15.112424,8.04477,15.098498,1.0708653,-37.10755,-13.565939,-9.5524,-6.1540256,0.04785524,0.107508376,0.123607896,0.119925074,0.29702225,0.18255639,0.10320962,0.05935227,0.08854116,0.088301174,0.14444308,0.18745929,0.08982039,0.087575175,0.21621518,0.17239782,0.10551864,0.061426975,0.09235442,0.18767364,0.24394244,0.064935274,0.061275415,0.18373914,0.15073009,0.1925553,0.11463628,0.070299044,0.15728669,0.23206529,0.27414578,0.15763664,0.034641344,0.26254013,0.10474468,0.16425835,0.06349064,0.07013988,0.23210095,0.094545774,0.1593079,0.117449656,0.25606418,0.11164505,0.10027781,0.16886617,0.08412412,0.20490639,0.18992592,0.2336017,0.10225043,0.11255785,0.31387737,0.09175039,0.13133197,0.13905726,0.1514848,0.072762035,0.13988553,0.10472315,0.48206455,0.19163284,0.14328818,0.08754649
SPY201152,-3.2527115,5.837212,-6.4071584,-15.961593,7.118757,-1.5748519,1.4506618,-2.0247838,1.6981922,-5.2718515,4.4415274,15.862778,12.308454,3.1857066,-21.877205,0.71422774,-8.480562,-0.5620879,6.689439,-6.844895,-12.695618,-2.9048088,5.267842,8.531705,6.5643826,-4.474233,0.36556637,1.5835395,-7.069143,-4.9563746,-4.9621096,-7.654545,0.28392553,-31.47899,16.265625,2.6750886,5.2091928,8.099558,-3.7930586,8.313507,-22.243177,1.0313263,-26.022184,-6.8064446,-1.9183558,6.904195,2.6960313,-24.567572,-7.763946,-11.047011,5.6475444,12.304596,-20.358408,8.166308,1.0228738,-9.061315,-19.407393,10.897467,11.330561,3.5311992,-31.097504,-10.804856,-7.412112,-3.7915685,0.021194404,0.026151545,0.048210997,0.054334145,0.020025048,0.078325,0.030840985,0.019887226,0.035000067,0.043948926,0.050541557,0.06437677,0.031014923,0.023729434,0.08351325,0.061590932,0.052606523,0.036153797,0.046928417,0.07288047,0.06864385,0.012689979,0.034278926,0.04799018,0.04315332,0.059321724,0.015231873,0.021831276,0.059315205,0.025779327,0.05731363,0.05036337,0.016366735,0.08733502,0.06754156,0.03603737,0.030292315,0.04559624,0.0783393,0.039230015,0.11337304,0.035694312,0.06671993,0.03556938,0.04873533,0.05687489,0.016217466,0.045416847,0.08083318,0.038677275,0.023676522,0.042796787,0.10841593,0.028358856,0.023236737,0.06565413,0.046707965,0.046359416,0.048881672,0.022182085,0.06743017,0.018576423,0.017086469,0.049909405
SPY231786,-1.7936723,7.754187,-1.5765997,-10.589454,9.970414,-10.912513,-0.16870232,-1.0860264,-1.9607322,-6.7552485,7.902526,11.251456,10.5656395,4.279505,-14.288915,-7.611026,-4.9835176,3.0670564,0.56447065,-11.65197,-4.8423038,-1.0414577,7.8620577,4.156138,6.5177107,-8.123721,-1.3766844,3.8944805,0.118448064,-6.1802163,-11.236132,-12.839021,-0.39498967,-27.596464,12.6383295,3.7970443,3.8794777,4.319387,-11.6368685,8.171694,-9.8206215,-1.8848145,-21.780087,-10.31124,-6.755249,12.383181,3.6348984,-26.805712,-14.69714,-14.334713,5.010797,14.117158,-32.175976,4.4398384,2.2223585,-0.32919395,-16.619797,8.205249,15.342523,-0.14530218,-33.44997,-12.731701,-7.9944882,-8.1467085,0.06647925,0.08933482,0.1575625,0.19344908,0.18815489,0.27345496,0.08450187,0.05755623,0.17006598,0.08664954,0.1061319,0.30254415,0.15698762,0.11600119,0.2334169,0.24838014,0.19650596,0.09150713,0.17562743,0.17751668,0.26276544,0.084142834,0.07990381,0.13525692,0.1603637,0.19753455,0.090371214,0.1004498,0.23027843,0.16992599,0.24503784,0.17404523,0.08299795,0.31748408,0.24086396,0.12349406,0.101522684,0.18076645,0.28940386,0.12088449,0.34929156,0.10698693,0.30555975,0.16513525,0.18961318,0.2110839,0.084798776,0.31543252,0.22571954,0.16867138,0.10475765,0.19602557,0.411254,0.16244605,0.08417609,0.2575463,0.21050416,0.12435746,0.19484581,0.15069018,0.35071903,0.15254553,0.1159812,0.15475675
SPY231892,-2.1193504,9.549055,-1.9393166,-13.520647,20.073774,-16.62552,0.7532623,-6.1608977,-1.150408,0.69954,6.762213,15.41767,13.621628,6.8665586,-18.837229,-14.032159,-9.703849,1.4333975,-2.1788669,-11.163272,-6.589325,5.468283,7.465033,3.9548366,0.45358992,-0.90504044,-5.1400948,12.139224,1.7282021,-1.2347422,-12.3527155,-17.561533,-0.74652576,-40.97023,15.915038,-4.4185443,7.2180586,5.937721,-8.761224,7.4114103,-4.347295,-4.0349016,-27.774866,-13.294427,-12.628226,13.789725,1.2471982,-37.99143,-18.820488,-18.211134,2.9463708,19.957664,-46.877037,5.8601437,6.179279,11.074941,-12.608977,13.678697,22.594368,-4.3154025,-40.93892,-20.227907,-9.141331,-10.765937,0.0378602,0.09097576,0.057046108,0.12325283,0.26047245,0.12103318,0.041210275,0.15111153,0.09396322,0.20758142,0.05265626,0.15038036,0.11053122,0.06853307,0.24404651,0.13734405,0.1788038,0.11310252,0.08613603,0.07781212,0.13398412,0.17986435,0.029490951,0.09472844,0.061809424,0.20161027,0.08273758,0.1497531,0.055918016,0.16184805,0.10988441,0.1431807,0.04645543,0.44601613,0.17671564,0.21126579,0.1268788,0.094418764,0.18062137,0.080540195,0.1624247,0.053427014,0.2835346,0.093258925,0.13405369,0.08349164,0.082803674,0.32258415,0.13116227,0.12541528,0.0968,0.1315747,0.33118144,0.11058158,0.09176451,0.19409072,0.08208368,0.14988896,0.1574055,0.08646594,0.28138462,0.19826078,0.067485616,0.072108746
SPY202494,-1.5173075,8.6389065,-0.5404633,-10.394027,12.722735,-13.228564,0.14815602,-1.3214641,-2.2701764,-7.843811,9.306618,12.007675,12.169097,4.589274,-16.128418,-10.27824,-5.5095487,3.7070658,0.05190613,-14.464654,-3.922252,-1.1764308,8.512043,4.6902175,7.9865284,-9.930628,-2.7031045,4.2838326,1.7809694,-7.70789,-14.428517,-15.854541,-0.19793813,-31.80232,14.869791,4.7622595,4.534341,4.9041376,-14.7262335,9.810315,-10.550682,-2.211504,-25.05805,-12.347602,-8.329919,14.695113,4.552305,-31.12802,-18.241282,-17.017267,5.916702,16.055782,-38.43958,4.4456,2.448997,0.82229024,-19.222239,9.038399,17.318674,-0.60342133,-39.08374,-15.240462,-9.285896,-10.04023,0.06482981,0.11244091,0.17333268,0.18597853,0.25456578,0.28802034,0.0682308,0.05573002,0.17137282,0.06067283,0.1136555,0.2373496,0.09404311,0.09850077,0.19853848,0.26697648,0.15722452,0.09635051,0.17025119,0.17504017,0.26800755,0.08291218,0.04809324,0.12668101,0.13820606,0.19278233,0.10811652,0.09371965,0.21773902,0.20355433,0.26846498,0.163699,0.065268375,0.2454479,0.16499096,0.12455226,0.08868949,0.15963207,0.27437326,0.10216491,0.31627196,0.13125898,0.22988372,0.11888797,0.12951787,0.17521884,0.0757857,0.23436676,0.21348013,0.1806439,0.078296244,0.11030174,0.40851268,0.14406648,0.082896374,0.24058436,0.15670545,0.11432013,0.14293413,0.13084558,0.34033754,0.15830891,0.13797371,0.1138329
SPY201171,-0.97288764,8.09075,0.23252168,-8.770983,12.846589,-14.464934,0.31586897,-0.58952314,-2.6955876,-8.04613,10.3065815,11.150182,11.931632,4.4125223,-14.424262,-11.430594,-4.505048,3.7291343,0.16658562,-15.503453,-1.8449064,-2.0749893,8.292741,4.029135,9.795544,-12.635396,-3.0771585,3.5516322,3.4020472,-8.969652,-16.36647,-15.834846,0.14884311,-30.119661,14.769314,6.4772387,3.2901626,4.0117483,-17.49518,9.448372,-8.986732,-2.2598655,-23.299467,-13.241079,-8.95838,16.064491,5.4791245,-29.401655,-19.213278,-16.86407,5.5408425,15.998788,-38.11714,4.1912036,2.5701714,0.53040355,-19.415335,7.502832,16.11415,-0.95530164,-37.824596,-14.697695,-9.915364,-10.39893,0.03787335,0.10592108,0.1210527,0.1585943,0.22369927,0.2479553,0.08018352,0.0749757,0.22182487,0.083813645,0.12577176,0.3109667,0.08210752,0.13366075,0.18479261,0.20295581,0.17689638,0.085291885,0.16155413,0.13510165,0.18350275,0.11533127,0.05501614,0.10562342,0.18006635,0.25691792,0.09425008,0.13707878,0.10206545,0.22401753,0.24824296,0.112720735,0.08268138,0.22180147,0.19013126,0.17266442,0.11670706,0.15545452,0.25527856,0.11421284,0.28590816,0.13621022,0.21558402,0.1133279,0.072089404,0.1560347,0.0661495,0.26065257,0.124983855,0.15937042,0.09960212,0.100728385,0.3054687,0.14705342,0.097311765,0.18448134,0.16032626,0.15021124,0.16656615,0.09280874,0.3166844,0.13649832,0.16820419,0.08672813
SPY231705,-1.5726227,8.1431055,-1.8485739,-10.446793,12.104933,-13.581681,-0.1852148,-1.3717391,-2.5402017,-6.390815,8.830023,11.095845,11.012342,4.287383,-14.109354,-9.356131,-4.5378556,3.337842,0.33948928,-12.501799,-4.406202,-0.7140508,8.078845,3.8104734,6.257526,-9.29912,-2.3181918,4.572553,1.563508,-7.2779484,-13.400509,-13.873255,-0.4152114,-28.435402,12.477374,3.2555413,3.5254278,3.5394795,-13.670259,7.5001616,-7.643659,-2.9196696,-21.801767,-11.424432,-8.099764,14.028625,4.1192794,-28.045513,-16.178846,-15.537806,4.675475,15.238572,-35.00348,4.6514354,3.1760886,1.9826218,-15.889702,8.283395,16.926653,-1.0404263,-35.274662,-13.9552765,-9.09811,-8.559695,0.081267886,0.13405201,0.14951913,0.16765644,0.24134573,0.29077002,0.10090833,0.049873583,0.16017556,0.14610936,0.1276404,0.27172577,0.11441522,0.13935511,0.3245395,0.28631708,0.16161337,0.08145666,0.14562191,0.18715425,0.31041712,0.108410925,0.038550563,0.23221791,0.14658608,0.17161788,0.109653756,0.16745698,0.22856939,0.22678007,0.24999394,0.15057711,0.076768935,0.2834428,0.17292546,0.11857885,0.116058245,0.1431979,0.25505754,0.17342263,0.4456535,0.11841404,0.33874223,0.14973463,0.18802433,0.17801474,0.069694854,0.24008943,0.21605136,0.20197408,0.16870071,0.12817287,0.3759157,0.13170658,0.097024016,0.342894,0.28975573,0.1082398,0.13457042,0.19901203,0.44855803,0.14874522,0.13246925,0.1262418
SPY181149,-0.29665756,6.1062655,1.0542576,-9.639862,9.153628,-10.225684,1.679908,-0.9246838,0.883642,-6.9813004,7.427953,16.47537,11.845129,6.377981,-13.929736,-9.816403,-7.574019,2.2059011,1.2449472,-12.2334,-0.3716519,-1.0508416,7.879375,2.8175242,8.946309,-8.887696,-2.2434218,4.5140386,1.5507786,-3.9234762,-11.674395,-15.272519,1.2412388,-29.975134,17.788927,5.915307,4.154234,7.303969,-13.247018,9.403509,-11.767776,0.40634942,-23.573378,-11.693907,-8.936074,12.907257,4.385121,-30.06507,-18.365545,-13.78177,4.6149526,15.648639,-36.425106,3.4840019,1.7826642,-0.09895587,-18.652348,8.390831,16.00138,-1.1624361,-33.665085,-14.048324,-6.8016896,-10.770737,0.088756,0.11096907,0.15880802,0.1830986,0.2132098,0.32107368,0.07127352,0.058814973,0.2206113,0.109942384,0.15656054,0.29643342,0.11071701,0.08652199,0.21508013,0.23823294,0.18087783,0.09725495,0.15125573,0.19911255,0.2314342,0.072942406,0.0556787,0.121324316,0.16677411,0.20641054,0.06858698,0.15108149,0.1714636,0.22999392,0.24380776,0.14975873,0.09479892,0.25096482,0.23309907,0.12878996,0.082764305,0.20624496,0.26133996,0.12207263,0.3585594,0.17769329,0.24923176,0.18087073,0.12734696,0.23358127,0.079748765,0.2570588,0.18705045,0.19680367,0.098639,0.16076346,0.37035462,0.1597981,0.078885816,0.26362294,0.19811468,0.12341227,0.17994429,0.13105999,0.32282612,0.13384062,0.15923749,0.12833282
SPY231692,-1.7003675,8.213829,-1.9814875,-10.217278,11.831635,-13.215325,-0.41699317,-1.4513738,-2.9807756,-5.9477158,8.394486,10.030814,10.30678,3.9111671,-13.799307,-8.861792,-4.1196823,3.3236072,-0.17003386,-11.757779,-4.8011737,-0.28559047,7.918774,3.7712734,5.186916,-8.216306,-2.065323,4.7805305,1.1688563,-6.822923,-12.495217,-13.208988,-0.8337675,-27.50915,11.416722,2.6276634,3.643303,3.251234,-12.4918,7.0619965,-6.863219,-3.0457141,-20.91989,-10.585833,-7.477668,13.073502,3.6404927,-26.878916,-15.219711,-15.033114,4.538261,14.442268,-33.76517,4.2894645,3.204583,2.1899521,-14.736745,8.177263,16.428392,-1.0467128,-34.081547,-13.482479,-8.746996,-7.8502045,0.09152498,0.11494032,0.20494705,0.16871458,0.17498408,0.2564656,0.08847287,0.057530526,0.12570108,0.15776466,0.075799346,0.21684006,0.09579159,0.12882134,0.30601275,0.30011114,0.122017466,0.083812326,0.12930273,0.19710349,0.35082284,0.09658246,0.04393599,0.22582379,0.17579249,0.13266806,0.10547836,0.1411723,0.24276082,0.14460649,0.21185985,0.17598933,0.07042796,0.26778466,0.18071353,0.18640009,0.12790975,0.13987687,0.2703388,0.20326896,0.4325653,0.099939056,0.32411492,0.16430794,0.19579698,0.16883048,0.077347405,0.2311719,0.26831567,0.15893814,0.1707654,0.115040615,0.4046858,0.13179813,0.112349704,0.32811287,0.30205357,0.093540296,0.103735164,0.19745925,0.37771386,0.12853852,0.08190796,0.15741903
SPY210697,-1.6290307,7.2926116,-3.9743323,-9.936889,10.4346285,-10.828151,-1.1943687,-0.54830754,-1.5735832,-6.5303664,9.521204,10.016061,9.888443,4.0298944,-14.210376,-5.9244766,-3.1552682,1.7587446,3.2306442,-12.480692,-6.710149,-2.7524257,6.4332767,4.688545,8.551533,-12.324016,-0.96112174,1.3376079,-0.12019672,-9.136501,-13.3456335,-11.369881,0.29824436,-25.039082,11.974461,3.3862207,2.2660487,2.950022,-13.330557,6.8091164,-10.311945,-2.5878987,-20.366549,-10.133034,-6.4440627,13.76115,4.9233704,-23.46712,-13.942722,-14.633482,5.358879,13.745973,-27.875746,6.3057475,2.9311163,-2.0061727,-16.67347,6.6086907,14.371681,1.117754,-33.193527,-11.616376,-9.403202,-6.9154687,0.0601891,0.08733259,0.19882432,0.14064862,0.17249465,0.18412617,0.09685739,0.041428514,0.12547162,0.106716216,0.12361476,0.17258187,0.1148219,0.085736245,0.14058341,0.18415388,0.14167777,0.14610565,0.23649573,0.16573392,0.2513386,0.091415316,0.17912894,0.093977705,0.2126074,0.3279533,0.07624315,0.17272682,0.1923684,0.21992968,0.28551215,0.13740058,0.12992951,0.21507739,0.16372107,0.18038069,0.10668731,0.0978758,0.2882321,0.14690664,0.19238101,0.10017667,0.15254314,0.14708667,0.13300967,0.20842779,0.15179692,0.2265278,0.18253405,0.13793719,0.07922335,0.09810733,0.34230304,0.1342071,0.08336868,0.16555019,0.15864763,0.08968247,0.12081881,0.11136566,0.24679632,0.099684924,0.12677246,0.12664229
SPY232835,-0.58498967,6.1853094,1.7117846,-8.454822,13.629941,-16.941793,1.6044517,-0.09000628,-6.1371837,-3.9157438,7.3114223,8.071201,11.020426,3.2729564,-11.017207,-14.720686,-2.4978037,4.29558,-2.742247,-10.95212,-0.73692167,-0.64843154,7.218593,1.7559974,4.150669,-11.996167,-3.5569942,7.110725,2.2660284,-6.2342424,-16.068657,-13.683846,-1.110116,-28.228415,10.10888,7.1082616,1.305787,3.0455554,-17.776035,4.9125614,-0.18487172,-3.50436,-17.613426,-14.5518265,-8.916018,15.371132,3.8143559,-25.723343,-17.898838,-14.781053,1.4162086,15.386624,-36.779484,0.9221362,3.858716,3.6702912,-14.726415,5.2547393,13.250094,-4.4590707,-31.641397,-13.275953,-10.931575,-9.650653,0.02564361,0.09601038,0.18789084,0.16181844,0.17178982,0.12354868,0.08068135,0.090637006,0.15918607,0.22737385,0.16510953,0.21744895,0.045408614,0.09252679,0.12797463,0.18833616,0.10532737,0.06200586,0.18538316,0.19192043,0.17999849,0.14434193,0.074422784,0.096136376,0.24780843,0.24423407,0.057821427,0.20245223,0.112828866,0.23520827,0.1879612,0.12648574,0.07473072,0.1819692,0.117446564,0.24188828,0.08177001,0.038321827,0.2458913,0.17968808,0.2598319,0.08501623,0.11681641,0.09431308,0.051436942,0.08981274,0.117047995,0.13030018,0.1649083,0.11259096,0.1646078,0.08876654,0.24617352,0.17934723,0.064565636,0.19637191,0.23899534,0.09382494,0.13663982,0.10729186,0.2667292,0.07335131,0.115498975,0.07682575
SPY192310,-1.4312811,6.8669896,-1.4652704,-12.07655,8.935365,-7.7005115,1.1178015,-1.2643107,1.5878545,-7.7063417,7.8988047,16.403917,12.67244,5.722597,-17.7546,-6.253129,-8.427345,1.8756826,3.2647657,-12.299164,-4.840382,-2.1356108,7.625108,5.2318106,9.960712,-8.680421,-1.4277068,2.7452457,-1.0806342,-5.607832,-10.670402,-13.773732,1.1060277,-32.16621,17.997074,5.501551,4.8390164,7.580105,-11.565625,10.491781,-16.862545,0.29519787,-26.656748,-11.049762,-7.2165246,12.398881,4.192954,-29.767048,-16.205143,-14.046959,5.963914,15.4574175,-32.758705,6.1709304,1.4272857,-4.080682,-21.32285,9.730685,15.277986,1.2802453,-35.7499,-13.484761,-7.56611,-9.1927805,0.06571652,0.1144604,0.18510623,0.1816831,0.1827939,0.24114658,0.09586861,0.05699563,0.17448026,0.10166869,0.12867339,0.2664307,0.12229375,0.07839803,0.19922478,0.24183829,0.15570378,0.086956434,0.18444064,0.20463826,0.2557651,0.08374778,0.053250432,0.115172125,0.17481165,0.23393098,0.082127236,0.13198428,0.17964561,0.18654215,0.24109735,0.19310737,0.092780106,0.24489075,0.19256079,0.121796116,0.09013917,0.13755542,0.27193305,0.11414131,0.27534738,0.12334727,0.22350325,0.15311554,0.14817679,0.21072114,0.077614956,0.27660754,0.2234771,0.19032572,0.09870324,0.16310847,0.41566008,0.18137324,0.080687575,0.23127545,0.17535436,0.11492418,0.19325064,0.12267344,0.33794686,0.14787453,0.1443072,0.140633
SPY201175,-0.6979643,8.074474,2.4064283,-8.52296,12.436916,-12.747908,0.7774179,-0.87058717,-2.0874834,-8.304442,9.188858,12.327291,11.902776,5.4930515,-15.805438,-12.071506,-5.6508317,3.3952136,-1.0974892,-15.65442,-0.30224124,-0.7925575,9.00715,3.924476,8.996067,-9.962991,-2.8510702,4.4711275,2.9092288,-6.492323,-14.133228,-17.460526,-0.30892554,-32.70923,16.996326,7.3184,4.8377194,6.3082037,-15.68492,11.413022,-10.903773,-0.32925606,-25.040442,-12.320337,-8.622999,14.175686,4.465464,-32.171787,-20.779125,-16.772604,6.1771126,15.983991,-41.237362,2.5993,1.3219917,0.7461497,-21.003456,8.403293,16.170315,-1.2820096,-38.82544,-15.411623,-8.04396,-11.449015,0.056674056,0.1335681,0.16326247,0.16902298,0.23770696,0.33380708,0.06186564,0.05965757,0.17866093,0.2197532,0.12578444,0.22114542,0.09323265,0.08978482,0.34864908,0.25378346,0.130879,0.1016764,0.1447689,0.2492767,0.19556552,0.09974124,0.0861574,0.20554651,0.24395962,0.16622844,0.08587488,0.23078829,0.16500144,0.20801523,0.1974685,0.17782298,0.07319054,0.36680895,0.21721245,0.2610647,0.10488638,0.16571063,0.21780924,0.27640146,0.4998146,0.17327909,0.36740476,0.1281471,0.16237412,0.13543743,0.05148394,0.2544635,0.21763025,0.19981205,0.20162615,0.12989816,0.38788506,0.11271843,0.11761425,0.3862643,0.4361061,0.12344852,0.17085214,0.17940938,0.44433045,0.1498276,0.10830095,0.08080709
SPY231778,-1.6194535,7.817417,-2.6254213,-11.814565,12.030217,-13.404333,0.22076175,-1.6791353,-1.3986346,-5.8495083,8.719268,13.339147,11.851699,5.1511226,-14.517461,-9.059001,-5.78055,2.7580283,1.52121,-11.845611,-4.830818,-0.6858695,8.083592,3.6015508,6.217,-9.222163,-2.320498,5.0260534,1.2731119,-6.747388,-12.968714,-13.902549,0.13466941,-29.420254,13.612475,2.8994308,3.3496408,4.1021442,-13.361707,7.189168,-8.424901,-2.7849727,-22.675598,-11.989081,-8.737165,14.4010725,4.0964437,-29.289873,-16.041147,-15.257126,4.2135167,16.441412,-35.181316,5.7262278,3.6813402,2.1687167,-16.019808,8.990678,17.944614,-1.1471155,-35.298935,-14.159637,-9.169612,-9.00445,0.080266766,0.10830565,0.19282602,0.19514464,0.23397233,0.27959815,0.10081491,0.104542606,0.15398271,0.14207785,0.15644176,0.2670392,0.12445224,0.12002166,0.27619132,0.3043853,0.20659122,0.087045014,0.2095745,0.17143188,0.2922996,0.18447542,0.0539827,0.18159364,0.25633118,0.33640903,0.10974732,0.2534805,0.22770447,0.25527513,0.26239815,0.1870319,0.07794483,0.3637194,0.20561689,0.16953686,0.15583399,0.17979833,0.3082547,0.15202291,0.40580162,0.11953659,0.32773605,0.1696187,0.19938928,0.20368785,0.11169879,0.35751632,0.23227075,0.16860344,0.1248164,0.16204289,0.51370466,0.16555654,0.10775517,0.37244913,0.25337672,0.17849791,0.20265622,0.20274347,0.35832345,0.18755315,0.12414238,0.16966125
SPY222974,-0.9919771,6.490699,-1.2377872,-12.571441,9.574286,-9.7486725,1.8418065,-1.8201799,1.9036663,-6.1672893,7.0773034,18.659922,13.160211,6.5692887,-15.735222,-8.553139,-9.251709,1.9229422,3.034305,-11.052615,-3.178217,-1.2100285,7.63517,3.6029966,8.010056,-7.7632694,-2.304659,5.1096134,0.26756996,-3.8546975,-10.987219,-14.676193,1.7159806,-31.820705,18.181301,4.017314,4.416039,7.43417,-11.728199,8.895719,-13.505128,-0.36709782,-25.66588,-12.181202,-9.168251,13.170895,4.15192,-31.662262,-16.730469,-13.73024,4.2883525,17.097841,-35.72539,5.6672053,2.7491279,-0.16891618,-18.470829,9.9807825,17.562132,-0.55441284,-34.908543,-14.677448,-7.5228844,-10.559208,0.06769509,0.106607966,0.13336658,0.16589285,0.24449788,0.31690454,0.058433935,0.05988555,0.17332639,0.09685627,0.12021247,0.25652635,0.14836265,0.06690215,0.2116415,0.2342667,0.15244204,0.06913233,0.16133592,0.16861992,0.19273254,0.08646507,0.071711585,0.1221649,0.17040727,0.17516656,0.07636043,0.14972739,0.16997106,0.17041874,0.22761327,0.16505747,0.08783323,0.2871435,0.2198422,0.105504975,0.07710465,0.14752331,0.23179439,0.111133054,0.35624877,0.14683615,0.26216725,0.18566649,0.15260032,0.22866628,0.07032404,0.306647,0.1904764,0.19801196,0.08230603,0.20647094,0.4185351,0.17223054,0.10165839,0.29451668,0.21179572,0.11839968,0.23446785,0.13838384,0.3645354,0.16432898,0.15491751,0.13179791
SPY212766,-1.3127434,7.4129486,-1.2342051,-13.1802635,11.416143,-11.259277,1.6586328,-2.0341985,1.3031806,-7.0528727,8.146143,18.649632,14.270574,6.6642065,-17.469398,-9.660481,-9.455368,2.4332867,2.8794148,-12.891606,-3.8791373,-1.2910057,8.275559,4.3358827,8.612425,-8.809639,-2.8906069,5.246376,0.6728882,-5.2703896,-12.75505,-16.291096,1.6051381,-34.83928,18.971268,4.3917804,4.9770126,7.5380454,-13.371803,10.036639,-14.402495,-0.8351231,-28.130032,-13.415839,-9.703456,14.781035,4.4809422,-34.558483,-18.506622,-15.764748,5.154272,18.397139,-39.330338,6.3023896,2.915054,0.2481341,-20.457706,10.798235,19.076393,-0.58895075,-39.11393,-16.099375,-8.667663,-11.436832,0.04989059,0.087845825,0.14293364,0.17398174,0.18714394,0.24500251,0.07717833,0.052511346,0.17842875,0.08011856,0.11468338,0.30701107,0.15509695,0.08150986,0.20161204,0.20927955,0.16880137,0.07616843,0.18630025,0.16683201,0.19040929,0.07825772,0.05854639,0.11127457,0.12876791,0.18092175,0.07004765,0.10310882,0.1662307,0.16934994,0.2187056,0.15221292,0.10258006,0.27249333,0.21409266,0.08519328,0.073506705,0.12234258,0.23541175,0.08522463,0.286618,0.09721059,0.253993,0.16914144,0.15086132,0.21351841,0.073795855,0.27446434,0.18502824,0.17511815,0.08187862,0.18836083,0.3624259,0.1783599,0.08343685,0.21720693,0.16125715,0.11375998,0.19205229,0.12334577,0.32691762,0.14268935,0.12676911,0.1324522
SPY201193,-1.566177,7.6521926,-1.7603807,-12.438274,11.088911,-10.463627,0.82343054,-1.4303014,0.7035917,-8.181943,9.178819,16.32415,13.603366,5.7824707,-17.88297,-8.084686,-8.013395,2.424604,3.192044,-13.96612,-4.9814477,-2.366344,8.09338,5.2298365,10.229127,-10.568218,-2.2589033,3.193658,0.24705344,-7.216212,-13.283648,-15.315098,1.1883847,-33.467094,18.01467,5.3017063,4.5910907,6.696101,-14.150941,10.599465,-15.477354,-0.89204955,-27.472832,-12.693109,-8.418435,14.809451,4.80827,-32.05895,-17.865082,-16.033165,6.210729,17.140549,-36.299793,6.787236,2.262641,-2.2164152,-21.720886,9.889977,17.436552,0.6901251,-39.02307,-14.86586,-9.079555,-10.257241,0.052532047,0.09492045,0.19248986,0.19417681,0.1775549,0.28547713,0.08828631,0.057220522,0.22264169,0.07512429,0.113767594,0.3243772,0.1325111,0.08580674,0.21252418,0.2679509,0.20137139,0.11285999,0.24930641,0.16494328,0.24500746,0.105944835,0.07558581,0.110796936,0.20964734,0.23616764,0.07913251,0.14748253,0.21204314,0.1700684,0.2266571,0.18379313,0.10850675,0.26933864,0.24780661,0.12530455,0.10276867,0.16526593,0.2595113,0.103736974,0.38686123,0.11536938,0.26051742,0.13585633,0.14506826,0.1926362,0.078731894,0.27506965,0.20461406,0.15906014,0.07131691,0.15266639,0.42088255,0.20355287,0.073443726,0.28468624,0.18899593,0.1271247,0.16561794,0.14281994,0.28241208,0.14390121,0.10744033,0.14332986
SPY210721,-3.5581183,8.675975,-5.1532884,-13.269787,11.266882,-8.933008,-1.8771378,-2.0288706,-2.8803813,-5.4766483,7.4214153,9.202531,9.995948,2.7226875,-17.839779,-3.6516328,-4.0166144,2.1733425,1.7582555,-9.77568,-11.592765,-0.7493468,6.455196,6.962346,3.1664255,-5.8194046,-0.5938569,3.889212,-3.5661645,-7.355957,-8.2968855,-10.708531,-1.4974598,-28.755451,10.712336,0.2756016,5.004636,4.0392075,-6.8640428,6.951564,-12.080369,-2.5807002,-23.628908,-7.742888,-3.8366015,9.961923,2.325217,-25.41427,-10.820724,-14.453409,5.9395995,13.126996,-26.982744,6.018165,3.4684455,-1.7618201,-15.306505,9.118906,15.156879,2.2230995,-35.265038,-12.59039,-9.068862,-5.128373,0.049955964,0.080375545,0.11741095,0.14448993,0.17301679,0.22490619,0.09772213,0.040207006,0.09928455,0.10451807,0.09017893,0.20171739,0.110189274,0.07314842,0.14354838,0.20033377,0.14923143,0.104823895,0.14614797,0.15701295,0.22800206,0.08417392,0.10464514,0.100193165,0.17634425,0.12720023,0.06959967,0.079565756,0.19372287,0.118522346,0.19703512,0.13379313,0.054460723,0.1810704,0.15434563,0.17017353,0.06753684,0.13196003,0.21112436,0.118975975,0.28091496,0.10657934,0.15789366,0.12884617,0.15729058,0.1574243,0.055116042,0.19245853,0.19377916,0.12951002,0.067289025,0.10880028,0.35577196,0.06568023,0.10525418,0.22568703,0.19325268,0.07507259,0.13974166,0.11247602,0.21333961,0.103057064,0.06198867,0.1293248
SPY231707,-0.7662179,5.836534,-0.3631598,-10.758736,13.732618,-16.326296,1.4595828,-1.6085734,-3.9038465,-1.8990295,5.9937596,11.759022,11.290273,4.856445,-10.910861,-13.732839,-4.721906,3.2636511,-2.0014236,-9.735237,-2.3597155,0.613831,6.783549,1.0889646,2.2236881,-8.784894,-3.6777616,8.932394,1.3633703,-3.7267628,-13.905347,-13.573065,-0.59452695,-29.538671,10.806916,3.6784308,1.6623627,3.5316312,-14.4220085,4.1658664,-0.10024583,-3.6106374,-18.219051,-14.482702,-10.054906,14.99015,2.9853947,-27.566828,-16.978178,-14.3207,0.55730844,16.841238,-37.187298,2.6310277,4.3446975,5.651464,-12.405408,6.8033175,15.824016,-4.529151,-30.99102,-13.919261,-9.625586,-9.919858,0.060940538,0.11207358,0.07895262,0.0741521,0.14368793,0.13987425,0.07263847,0.04064772,0.15553965,0.22130603,0.16235286,0.26902917,0.061553553,0.09584933,0.16640477,0.10838965,0.12055562,0.08312621,0.14249972,0.16801572,0.12938252,0.07790928,0.0976611,0.072053485,0.14866586,0.18681675,0.039883237,0.14889544,0.11641797,0.25595212,0.17483807,0.123944834,0.095409065,0.13769409,0.18885756,0.08858597,0.09129297,0.07285302,0.20386265,0.1796711,0.29020968,0.11442888,0.18646227,0.069811955,0.06874292,0.09847948,0.0823481,0.2288939,0.09782831,0.13933021,0.18686476,0.10769268,0.21682625,0.1110459,0.053257722,0.07984038,0.14797957,0.12199085,0.15052289,0.09706544,0.35972196,0.08799604,0.11068608,0.10195107
SPY210648,-0.8678686,7.1556816,0.388777,-10.185405,10.727759,-12.052509,1.092873,-1.1944104,-0.8101819,-6.867922,7.958607,14.541915,11.798348,5.835672,-14.218729,-10.469428,-6.6790843,2.9193487,0.45282078,-12.835327,-1.7058067,-0.67709094,8.197714,3.0099952,7.6489577,-8.671516,-2.4234211,5.131366,1.8234031,-5.0014563,-12.615723,-15.490469,0.47457242,-30.41782,15.968706,5.0880284,4.26209,6.0508046,-13.629942,9.20812,-10.109705,-0.9565934,-23.569174,-12.194853,-8.927786,13.717438,4.274731,-30.681627,-18.110315,-15.045177,4.7540746,16.060514,-37.76556,3.7741735,2.080394,1.3312445,-18.098108,8.728294,16.841547,-1.5053829,-35.43896,-14.549962,-7.7269173,-10.675058,0.10646662,0.11795647,0.1933816,0.18494159,0.17541645,0.21874271,0.086917445,0.040181745,0.16327097,0.09754647,0.10639857,0.3003199,0.13444619,0.11791239,0.21626352,0.24255338,0.16033614,0.06540143,0.14929792,0.16617468,0.3141035,0.07590387,0.042394295,0.15690155,0.14823082,0.15876482,0.08277759,0.12945798,0.16900283,0.19997188,0.19608006,0.17622927,0.100201815,0.24560848,0.26524732,0.13712177,0.062383287,0.14985332,0.22852905,0.12277916,0.29485276,0.13825335,0.25845358,0.14611115,0.16140328,0.16519643,0.0683963,0.25575387,0.26812723,0.15745528,0.10121821,0.15684247,0.38780382,0.18045977,0.07388701,0.22667363,0.2137642,0.10435716,0.14890966,0.14051716,0.31278798,0.12915005,0.12623668,0.15978883
SPY201163,-0.4580806,6.9283843,0.5301881,-11.036051,11.928697,-12.931828,1.7632109,-1.7479224,0.26500645,-6.1545534,7.7094874,17.377642,12.933428,6.9895186,-14.719026,-11.911782,-8.148409,2.672925,0.80885446,-13.006273,-0.99806166,-0.28127795,8.093616,2.593491,7.3494587,-8.331062,-3.306319,6.793289,2.1593754,-3.970197,-13.137291,-16.907791,1.259774,-33.12218,18.216768,4.545549,4.5793505,7.2220182,-13.833651,9.242018,-10.311489,-0.8237316,-25.256645,-13.472733,-10.600125,14.4640875,4.391359,-33.746998,-19.829458,-15.4888,4.2332807,18.103062,-41.220245,3.9564776,2.7533011,2.8921306,-18.115145,9.573185,18.717058,-2.2114213,-37.180676,-16.131939,-8.017861,-11.957116,0.07941408,0.11964624,0.13892858,0.16259857,0.23604333,0.22685331,0.06967131,0.10995164,0.18490209,0.16227378,0.10362746,0.27765706,0.08824567,0.08142021,0.17026831,0.2021388,0.15276384,0.06601533,0.14607011,0.14018086,0.21776907,0.14106475,0.05282383,0.063799575,0.27495798,0.2806398,0.092663355,0.2328394,0.0796107,0.1531359,0.15887305,0.1530231,0.11698734,0.2790939,0.22974357,0.25789046,0.10330589,0.123864256,0.2510501,0.091105185,0.24046853,0.13431548,0.18265986,0.12951003,0.14017765,0.12831295,0.09518741,0.28267798,0.20333369,0.14898628,0.09125821,0.16877116,0.39874774,0.1187282,0.08037545,0.28870115,0.20772314,0.15450639,0.19576553,0.092480555,0.28085142,0.16140881,0.089625895,0.12188031
SPY231706,-0.38725415,5.3113995,1.4194797,-9.15149,13.900287,-16.37252,1.9752316,-0.8643234,-5.0671196,-1.2970778,5.476209,9.965061,10.458284,4.2374372,-9.835909,-14.864474,-3.582111,3.4136193,-3.7629092,-9.444814,-0.7005397,0.7457969,6.437306,0.82431406,1.9691976,-8.893239,-3.747884,9.382181,1.10528,-2.921453,-13.812812,-13.313992,-1.050738,-28.979338,10.290591,5.2949224,1.5838187,3.5176249,-14.715744,3.7789054,1.4319738,-2.926588,-16.801533,-14.303704,-9.41062,14.172296,2.540988,-26.117767,-17.450056,-13.906984,0.05612863,16.07549,-36.830173,0.44101766,3.6892323,5.110473,-12.2758,5.5295973,13.816765,-4.7878776,-28.974878,-13.2952385,-9.429548,-9.823304,0.03489506,0.092311606,0.26839897,0.1891103,0.20286657,0.1428234,0.08346555,0.0936331,0.2305833,0.2319937,0.09500567,0.25394621,0.05758851,0.08330909,0.09340572,0.23064956,0.15217975,0.07869914,0.22454756,0.18468279,0.23630491,0.10068241,0.11973968,0.06251671,0.15349665,0.14666352,0.071248434,0.1337927,0.099989906,0.16891363,0.1375761,0.1549373,0.07980567,0.21087663,0.11602618,0.23818122,0.08226563,0.042643912,0.240591,0.18237646,0.22442111,0.09384941,0.103813246,0.085196055,0.060296107,0.078660235,0.08700422,0.17083071,0.22824046,0.11206248,0.15481883,0.09523278,0.3217014,0.26565814,0.0853912,0.09138431,0.1903019,0.077964045,0.16091105,0.058347303,0.24001901,0.0715669,0.081041284,0.08630099
SPY231716,-0.93380743,7.2739296,-0.72953033,-9.102473,12.505674,-15.741742,0.11202239,-0.94429904,-4.669402,-4.9526587,8.060394,8.656403,10.365809,3.4592474,-11.632691,-11.796356,-2.9126978,3.975754,-1.05942,-11.264617,-2.9301317,-0.42017028,7.397654,2.1645505,4.3700004,-10.2332945,-2.85411,5.575539,2.6989892,-7.066513,-14.651017,-13.156463,-0.94953346,-26.135761,9.882518,3.9529088,2.1520045,2.443454,-15.420427,5.5783324,-2.308651,-3.9914224,-17.90081,-12.329806,-8.547276,14.564656,4.0311346,-25.41913,-16.16768,-14.6131,2.8691285,14.370615,-34.773403,3.0524452,3.9134932,4.015783,-13.517322,6.6578007,14.979209,-3.2726042,-32.407455,-13.179021,-9.7673645,-8.326871,0.02125264,0.150563,0.1229618,0.12638624,0.22154967,0.17710467,0.110695995,0.06582097,0.16170576,0.18021008,0.19534735,0.23082732,0.087342836,0.11175886,0.2378219,0.20380002,0.096126705,0.06393895,0.115868025,0.20790844,0.1634832,0.09828527,0.035595816,0.1687341,0.2607625,0.21955787,0.07040502,0.22336625,0.10248853,0.2606393,0.24557368,0.10280692,0.058526743,0.2205202,0.10809296,0.16622847,0.10301741,0.07074664,0.20819202,0.14949429,0.30092883,0.12105443,0.21970318,0.1779288,0.06876834,0.113515876,0.08557145,0.15140918,0.124683216,0.18056512,0.18975548,0.09642324,0.23728886,0.13788627,0.1050815,0.17900501,0.18937077,0.08795522,0.13900353,0.17337494,0.41477576,0.1330358,0.14756653,0.098111115
SPY210637,-1.3275486,6.7096753,-2.1854699,-11.666257,9.54249,-9.678105,0.90770096,-0.9136212,1.2937816,-7.702788,8.941203,16.116581,12.629881,5.849191,-16.080948,-7.0563855,-7.4053693,1.731461,4.0822353,-12.948948,-4.5549026,-2.710393,7.59543,4.526873,10.825179,-11.321665,-1.6559949,2.2243533,0.3078746,-7.0668507,-12.782554,-13.6558485,1.5309439,-30.158953,17.192806,5.4335856,3.4897342,6.104348,-14.086779,9.409248,-14.698334,-0.6544241,-24.781603,-12.052399,-8.165957,14.435335,4.9634542,-28.862173,-16.569128,-14.483008,5.485347,16.046085,-32.664104,6.936915,2.0782638,-2.9734187,-20.418825,8.907004,15.926292,0.69360167,-35.25577,-13.28614,-8.519576,-9.45847,0.043091975,0.09045822,0.20041096,0.1863537,0.19136,0.26409978,0.11531466,0.06549277,0.19700886,0.07844048,0.16099396,0.3282184,0.14705537,0.08471,0.20401928,0.21444699,0.23522243,0.106280826,0.23329338,0.18364228,0.20493771,0.092375904,0.08402957,0.09693459,0.1834183,0.29792047,0.079657465,0.15785491,0.1690514,0.25125554,0.27683583,0.1732061,0.11290141,0.30874106,0.24414665,0.097493544,0.12678601,0.18754584,0.27827665,0.124435164,0.34404317,0.13293,0.2880783,0.1450531,0.13024606,0.24168347,0.100888774,0.3294707,0.1823061,0.1761178,0.07251939,0.1756093,0.38392428,0.19873339,0.08904641,0.22722147,0.17989635,0.14773688,0.19962089,0.108234085,0.3138379,0.14866059,0.15782014,0.13150027
SPY231738,-2.5830822,10.864327,-2.751999,-9.433501,17.135635,-14.677649,-2.4019842,-2.0583591,-5.016364,-7.7563624,11.362104,5.7005854,11.080369,1.3874948,-18.891788,-9.395658,-1.8904996,4.4838624,-0.67976564,-15.782593,-8.958626,-1.6603488,7.6074867,8.312371,6.8752713,-11.891303,-3.3892841,2.5032833,2.0124342,-12.51018,-17.239454,-15.18272,-1.3061786,-31.604568,11.569114,1.3827101,4.8130527,2.0206037,-14.9690075,8.825321,-9.414453,-4.9157577,-25.856476,-10.974947,-7.1440635,15.092445,4.947863,-28.669922,-17.041386,-19.948015,7.4903126,14.102368,-36.331837,4.884468,4.550267,1.2564812,-17.900621,8.650208,16.851551,1.3292385,-44.260124,-16.458672,-11.530309,-7.424164,0.047581106,0.10607136,0.13585456,0.15633681,0.2910141,0.15261677,0.1263468,0.087452434,0.07819589,0.11604392,0.11137726,0.24900322,0.09766045,0.12274406,0.2255383,0.18275714,0.11182189,0.05216782,0.09838376,0.17024447,0.28846368,0.07362308,0.09976113,0.20613846,0.20961268,0.17469457,0.09870598,0.09150174,0.17200844,0.19201183,0.24000092,0.14209238,0.043618742,0.2344749,0.13062698,0.22964434,0.06622191,0.065674685,0.22789524,0.12467196,0.1881471,0.14947473,0.24418798,0.12429983,0.10114747,0.14049298,0.07951796,0.19962493,0.17307743,0.21119155,0.11294867,0.13868296,0.2871152,0.092869446,0.1804939,0.16904816,0.1861817,0.07973908,0.14004011,0.12772684,0.44095963,0.18303964,0.10861356,0.109658934
SPY231703,-1.7284975,9.192243,-3.0956295,-9.899311,14.926081,-15.030601,-1.5007143,-1.5252448,-3.4979863,-6.968421,11.019836,8.696778,11.358047,2.9049578,-16.081667,-9.3766365,-2.9175673,3.6399918,0.8844754,-14.437945,-6.591219,-1.832887,7.5959764,5.690363,7.50512,-12.729443,-3.026782,2.9440138,2.2126222,-10.906386,-16.725662,-14.215425,-0.5272417,-29.1842,11.9063425,2.4131172,3.3085725,2.1297593,-16.005173,7.419051,-7.8655286,-4.3821425,-23.234827,-11.875764,-8.060394,15.863576,5.090507,-27.751566,-16.973719,-17.85262,5.7584133,15.180654,-35.027218,5.6877956,4.4830585,1.7681282,-16.956362,7.8025255,17.290825,-0.033632148,-39.768044,-14.949762,-11.086455,-7.8636174,0.09285768,0.16682556,0.15651727,0.12763931,0.3034686,0.2328355,0.1380238,0.06973579,0.16174212,0.13239089,0.1373688,0.30978972,0.0856873,0.16110483,0.30880174,0.27503365,0.14631805,0.107083246,0.17852597,0.21096739,0.32830682,0.13240634,0.09409388,0.26976296,0.1885859,0.24396768,0.1096999,0.16875768,0.21050262,0.25768402,0.26019666,0.14299372,0.08847414,0.28861994,0.1474753,0.17110589,0.15982622,0.1121991,0.24007894,0.17768441,0.38241372,0.14809823,0.32282218,0.1293268,0.17448102,0.16205111,0.08232927,0.22221649,0.15331541,0.26580256,0.21338998,0.118814155,0.3744802,0.11414314,0.13659227,0.29065758,0.21093851,0.11764523,0.11571412,0.23345222,0.5364058,0.19026896,0.13077089,0.10369066
SPY211068,-1.0443509,6.2140403,-0.9085995,-10.777876,8.280934,-9.957399,1.054397,-1.0759499,0.23916203,-5.642373,6.819985,14.735874,10.8516445,5.6053143,-12.716834,-7.9016633,-6.730769,2.1072938,1.7532086,-10.090246,-2.5361009,-0.913662,7.4806595,2.5824928,6.82306,-7.4684772,-1.4158617,4.497153,0.5944862,-3.7777143,-10.042866,-12.66184,0.5891364,-26.748909,14.4419985,4.1996617,3.368007,5.5217643,-11.131217,7.521251,-9.751013,-0.8164551,-20.958242,-10.712827,-7.942876,11.984423,3.749924,-26.865353,-14.724839,-12.36934,3.696284,14.704409,-31.614017,4.3982043,2.2649622,0.10099864,-15.7443905,8.047866,15.296863,-0.90226805,-30.219587,-12.430079,-6.77813,-9.046185,0.09525387,0.07290009,0.16499962,0.19641201,0.19146186,0.36343127,0.05204897,0.031493977,0.13593407,0.12066816,0.08878118,0.1564691,0.06074446,0.07040075,0.3168683,0.35071877,0.14434223,0.07276898,0.17812712,0.15123072,0.32282206,0.108132675,0.04488748,0.22144075,0.12856144,0.15220706,0.09696462,0.17609742,0.2974509,0.13607615,0.24546356,0.16678828,0.05393904,0.22010162,0.14446618,0.09103852,0.11927338,0.14452277,0.2589107,0.18059862,0.53196025,0.123843424,0.28886822,0.16904905,0.22770682,0.19020975,0.08322566,0.15300976,0.23963799,0.13672234,0.1437376,0.10782545,0.424321,0.18442383,0.08771701,0.42027143,0.286594,0.10898844,0.13351904,0.24016064,0.23937921,0.11401025,0.08563741,0.1535409
